const MODEL = {"type":"t","options":{"inputSize":85,"inputRange":85,"hiddenLayers":[10],"outputSize":85,"decayRate":0.999,"smoothEps":1e-8,"regc":0.000001,"clipval":5,"maxPredictionLength":100,"dataFormatter":{"indexTable":{"0":5,"1":2,"20":17,"50":15,"72":43,"76":53,"80":13,"84":18,"88":41,"92":55,"96":34,"100":80,"104":44,"108":64,"110":11,"112":57,"116":33,"120":1,"124":19,"132":35,"136":72,"140":9,"144":58,"148":48,"152":4,"156":20,"160":36,"164":63,"168":42,"170":7,"172":54,"176":45,"184":29,"192":21,"196":6,"200":0,"204":67,"208":47,"212":56,"216":46,"220":30,"224":49,"228":8,"230":3,"232":75,"236":51,"240":68,"248":81,"256":31,"260":22,"264":10,"268":73,"272":65,"276":69,"280":52,"284":59,"290":26,"292":32,"296":12,"300":23,"308":66,"312":70,"320":28,"324":14,"328":78,"336":24,"344":60,"348":71,"350":37,"360":16,"364":79,"372":25,"376":61,"380":38,"396":76,"400":74,"408":62,"410":40,"412":39,"420":27,"428":77,"-10":50,"stop-input":82,"start-output":83,"unrecognized":84},"characterTable":{"0":"200","1":"120","2":"1","3":"230","4":"152","5":"0","6":"196","7":"170","8":"228","9":"140","10":"264","11":"110","12":"296","13":"80","14":"324","15":"50","16":"360","17":"20","18":"84","19":"124","20":"156","21":"192","22":"260","23":"300","24":"336","25":"372","26":"290","27":"420","28":"320","29":"184","30":"220","31":"256","32":"292","33":"116","34":"96","35":"132","36":"160","37":"350","38":"380","39":"412","40":"410","41":"88","42":"168","43":"72","44":"104","45":"176","46":"216","47":"208","48":"148","49":"224","50":"-10","51":"236","52":"280","53":"76","54":"172","55":"92","56":"212","57":"112","58":"144","59":"284","60":"344","61":"376","62":"408","63":"164","64":"108","65":"272","66":"308","67":"204","68":"240","69":"276","70":"312","71":"348","72":"136","73":"268","74":"400","75":"232","76":"396","77":"428","78":"328","79":"364","80":"100","81":"248","82":null,"83":null,"84":null},"values":[["200","120"],["1"],["230","152"],["0"],["200","196"],["0"],["170","228"],["0"],["140","264"],["0"],["110","296"],["0"],["80","324"],["0"],["50","360"],["0"],["20","84"],["1"],["50","124"],["1"],["80","156"],["1"],["110","192"],["1"],["140","228"],["1"],["170","260"],["1"],["200","300"],["1"],["230","336"],["1"],["260","372"],["1"],["290","420"],["1"],["320","120"],["0"],["290","156"],["0"],["260","196"],["0"],["230","84"],["0"],["200","124"],["0"],["170","152"],["0"],["140","184"],["0"],["110","220"],["0"],["80","256"],["0"],["50","292"],["0"],["20","80"],["1"],["50","116"],["1"],["80","156"],["1"],["110","96"],["1"],["140","132"],["1"],["170","160"],["1"],["200","192"],["1"],["230","228"],["1"],["260","264"],["1"],["290","300"],["1"],["320","336"],["1"],["350","372"],["1"],["380","412"],["1"],["410","88"],["0"],["380","132"],["0"],["350","168"],["0"],["320","72"],["0"],["290","104"],["0"],["260","140"],["0"],["230","176"],["0"],["200","216"],["0"],["170","84"],["0"],["140","84"],["1"],["170","208"],["1"],["200","80"],["0"],["170","120"],["0"],["140","148"],["0"],["110","184"],["0"],["80","224"],["0"],["50","260"],["0"],["20","300"],["0"],["-10","80"],["1"],["20","120"],["1"],["50","160"],["1"],["80","200"],["1"],["110","236"],["1"],["140","280"],["1"],["170","76"],["1"],["200","120"],["1"],["230","172"],["1"],["260","92"],["1"],["290","132"],["1"],["320","172"],["1"],["350","212"],["1"],["380","80"],["0"],["350","112"],["0"],["320","144"],["0"],["290","172"],["0"],["260","200"],["0"],["230","228"],["0"],["200","256"],["0"],["170","284"],["0"],["140","320"],["0"],["110","344"],["0"],["80","376"],["0"],["50","408"],["0"],["20","116"],["1"],["50","164"],["1"],["80","76"],["1"],["110","108"],["1"],["140","140"],["1"],["170","172"],["1"],["200","200"],["1"],["230","236"],["1"],["260","272"],["1"],["290","308"],["1"],["320","344"],["1"],["350","76"],["0"],["320","112"],["0"],["290","140"],["0"],["260","172"],["0"],["230","204"],["0"],["200","240"],["0"],["170","276"],["0"],["140","312"],["0"],["110","348"],["0"],["80","72"],["1"],["110","104"],["1"],["140","136"],["1"],["170","164"],["1"],["200","192"],["1"],["230","236"],["1"],["260","268"],["1"],["290","308"],["1"],["320","344"],["1"],["350","400"],["1"],["380","72"],["0"],["350","104"],["0"],["320","136"],["0"],["290","168"],["0"],["260","196"],["0"],["230","232"],["0"],["200","260"],["0"],["170","292"],["0"],["140","324"],["0"],["110","360"],["0"],["80","396"],["0"],["50","428"],["0"],["20","80"],["1"],["50","116"],["1"],["80","148"],["1"],["110","184"],["1"],["140","220"],["1"],["170","256"],["1"],["200","292"],["1"],["230","328"],["1"],["260","364"],["1"],["290","400"],["1"],["320","92"],["0"],["290","124"],["0"],["260","160"],["0"],["230","192"],["0"],["200","228"],["0"],["170","100"],["1"],["200","172"],["1"],["230","84"],["0"],["200","120"],["0"],["170","148"],["0"],["140","184"],["0"],["110","212"],["0"],["80","248"],["0"],["50","280"],["0"],["20","328"],["0"]],"characters":["200","120","1","230","152","0","196","170","228","140","264","110","296","80","324","50","360","20","84","124","156","192","260","300","336","372","290","420","320","184","220","256","292","116","96","132","160","350","380","412","410","88","168","72","104","176","216","208","148","224","-10","236","280","76","172","92","212","112","144","284","344","376","408","164","108","272","308","204","240","276","312","348","136","268","400","232","396","428","328","364","100","248","stop-input","start-output","unrecognized"],"specialIndexes":[82,83,84]}},"input":{"rows":86,"columns":85,"weights":{"0":-2.2381951808929443,"1":0.370633602142334,"2":-3.1205549240112305,"3":-1.7432587146759033,"4":-3.880622625350952,"5":1.7481003999710083,"6":-3.348454713821411,"7":-3.688354969024658,"8":-2.5900537967681885,"9":0.21363060176372528,"10":1.5562291145324707,"11":0.19807226955890656,"12":-3.806378126144409,"13":-2.907273769378662,"14":0.3131849765777588,"15":3.0521230697631836,"16":-0.14421072602272034,"17":-0.7480186820030212,"18":0.5900478959083557,"19":-1.3165202140808105,"20":-1.0660215616226196,"21":-0.47146347165107727,"22":1.9153305292129517,"23":2.329116106033325,"24":-4.2059245109558105,"25":0.11342532932758331,"26":-3.36594295501709,"27":-2.514197826385498,"28":2.1264500617980957,"29":-1.0993562936782837,"30":2.7366912364959717,"31":-2.4271159172058105,"32":-0.35827958583831787,"33":-1.0524569749832153,"34":3.56839919090271,"35":1.0807909965515137,"36":-0.21176478266716003,"37":1.9257615804672241,"38":3.2216780185699463,"39":-1.818509817123413,"40":-0.11859685927629471,"41":1.0965313911437988,"42":-2.0218636989593506,"43":1.9242990016937256,"44":-1.3301137685775757,"45":-3.396575689315796,"46":0.9783870577812195,"47":4.5988688468933105,"48":-1.5407819747924805,"49":-3.6648736000061035,"50":3.604663372039795,"51":0.03395334631204605,"52":1.9295103549957275,"53":2.4909467697143555,"54":-3.307185411453247,"55":3.066554069519043,"56":1.291069746017456,"57":-1.3567640781402588,"58":-0.7732798457145691,"59":0.3924366235733032,"60":-2.4347083568573,"61":-0.5675793290138245,"62":0.96880704164505,"63":0.119966059923172,"64":1.291854977607727,"65":3.3593716621398926,"66":-1.3519036769866943,"67":-0.6069535613059998,"68":1.3998602628707886,"69":0.21732372045516968,"70":2.515523910522461,"71":-2.430739641189575,"72":1.3851094245910645,"73":3.2880659103393555,"74":-2.7686195373535156,"75":-0.2627195417881012,"76":-1.0154021978378296,"77":-1.8019068241119385,"78":-3.723740577697754,"79":2.1999354362487793,"80":0.7927231788635254,"81":4.379608631134033,"82":-0.8596681952476501,"83":1.0827984809875488,"84":1.2077231407165527,"85":-11.712821006774902,"86":-3.3829667568206787,"87":3.643787145614624,"88":9.52920150756836,"89":1.4223501682281494,"90":-24.768701553344727,"91":-13.832873344421387,"92":-14.710182189941406,"93":-4.2542195320129395,"94":-3.0693955421447754,"95":-7.9780073165893555,"96":9.538816452026367,"97":-22.0126895904541,"98":-11.712139129638672,"99":-1.855268955230713,"100":-11.97633171081543,"101":12.250667572021484,"102":1.8211853504180908,"103":9.59426498413086,"104":3.5217843055725098,"105":4.202918529510498,"106":12.60300064086914,"107":-18.191823959350586,"108":-7.9237141609191895,"109":2.9531338214874268,"110":-5.262730121612549,"111":-18.533161163330078,"112":2.2163028717041016,"113":11.041257858276367,"114":10.513383865356445,"115":3.482940673828125,"116":-0.454047292470932,"117":-13.32993221282959,"118":-22.272947311401367,"119":8.42039680480957,"120":-11.917888641357422,"121":-2.6478867530822754,"122":5.1983323097229,"123":8.102075576782227,"124":-6.0035176277160645,"125":6.098447799682617,"126":-0.3121621310710907,"127":2.074679136276245,"128":-8.453564643859863,"129":7.4749650955200195,"130":-2.714825391769409,"131":10.971817970275879,"132":7.35189962387085,"133":7.7374420166015625,"134":-11.534470558166504,"135":3.288102149963379,"136":1.1636017560958862,"137":-9.305800437927246,"138":7.768661022186279,"139":5.1995649337768555,"140":4.958178997039795,"141":13.33557415008545,"142":4.220246315002441,"143":-0.04350391402840614,"144":-2.953176975250244,"145":4.909253120422363,"146":-9.027383804321289,"147":-5.798291206359863,"148":8.940300941467285,"149":5.796332359313965,"150":-4.178437232971191,"151":8.025737762451172,"152":6.792335033416748,"153":-14.23254680633545,"154":-6.284115791320801,"155":-9.414527893066406,"156":-8.617541313171387,"157":-4.771705627441406,"158":-15.15921401977539,"159":13.097044944763184,"160":-9.289586067199707,"161":1.5302464962005615,"162":84.09395599365234,"163":-11.082812309265137,"164":1.360927700996399,"165":-8.497930526733398,"166":12.669851303100586,"167":-4.2010369300842285,"168":2.1019532680511475,"169":11.579248428344727,"170":-55.39093780517578,"171":-38.58698654174805,"172":30.017810821533203,"173":49.155120849609375,"174":30.604887008666992,"175":38.250038146972656,"176":44.437896728515625,"177":-50.24350357055664,"178":46.27606201171875,"179":33.25236129760742,"180":28.161714553833008,"181":50.42881393432617,"182":41.09292984008789,"183":-83.65333557128906,"184":-38.081092834472656,"185":26.535324096679688,"186":36.726417541503906,"187":38.60531997680664,"188":32.19807815551758,"189":18.40879249572754,"190":-19.936389923095703,"191":-30.382610321044922,"192":62.161476135253906,"193":-47.45420455932617,"194":44.76185607910156,"195":30.54718017578125,"196":43.768798828125,"197":-50.193138122558594,"198":7.113663673400879,"199":37.11377716064453,"200":-57.04175567626953,"201":42.118534088134766,"202":-32.488433837890625,"203":23.30714988708496,"204":-37.8411979675293,"205":60.38969421386719,"206":48.44539260864258,"207":53.76421356201172,"208":-34.71512985229492,"209":48.21942138671875,"210":-65.1373291015625,"211":-51.201316833496094,"212":75.15876770019531,"213":45.65748596191406,"214":-76.10641479492188,"215":-42.87660598754883,"216":-44.86845016479492,"217":40.215335845947266,"218":-13.032939910888672,"219":-29.596206665039062,"220":42.65451431274414,"221":-24.90427589416504,"222":-22.23773956298828,"223":-19.711700439453125,"224":36.94037628173828,"225":48.320003509521484,"226":-14.365028381347656,"227":-52.6641960144043,"228":-8.172233581542969,"229":53.35774230957031,"230":-51.190616607666016,"231":31.76893424987793,"232":36.11521530151367,"233":55.64374542236328,"234":22.098480224609375,"235":-19.69379997253418,"236":2.23382830619812,"237":-32.163185119628906,"238":-25.496339797973633,"239":-55.01731491088867,"240":46.248958587646484,"241":-17.772109985351562,"242":-37.340492248535156,"243":1.2774758338928223,"244":47.187007904052734,"245":38.74700164794922,"246":-34.05124282836914,"247":40.873924255371094,"248":-9.840522766113281,"249":-43.65616226196289,"250":-46.58943557739258,"251":-61.77336120605469,"252":-45.74555969238281,"253":-52.747650146484375,"254":29.56326675415039,"255":-53.09619903564453,"256":-133.45193481445312,"257":130.9568328857422,"258":-485.15655517578125,"259":-606.6261596679688,"260":1025.10205078125,"261":-1331.7288818359375,"262":334.22161865234375,"263":-219.82620239257812,"264":-550.5758666992188,"265":-27.14879035949707,"266":541.43701171875,"267":-274.2208251953125,"268":-501.8802185058594,"269":-556.0668334960938,"270":-934.42236328125,"271":-296.6842956542969,"272":544.426025390625,"273":-420.40875244140625,"274":395.70489501953125,"275":-233.2509307861328,"276":694.7318115234375,"277":-49.799652099609375,"278":178.2204132080078,"279":-723.5106811523438,"280":261.6256103515625,"281":171.86465454101562,"282":629.68701171875,"283":584.8667602539062,"284":-673.7669677734375,"285":-167.09014892578125,"286":-128.67306518554688,"287":125.75341796875,"288":757.697998046875,"289":523.3514404296875,"290":-375.2850341796875,"291":-566.4843139648438,"292":611.9124755859375,"293":548.617919921875,"294":-302.7791748046875,"295":-220.5140380859375,"296":-636.6220703125,"297":-619.9647827148438,"298":-753.8133544921875,"299":143.54815673828125,"300":-399.5662841796875,"301":860.8005981445312,"302":301.9993896484375,"303":-714.4384155273438,"304":-531.5430908203125,"305":-695.0499267578125,"306":-259.1250915527344,"307":-599.1568603515625,"308":982.0481567382812,"309":261.3975830078125,"310":589.9063720703125,"311":-297.3653259277344,"312":-782.6409301757812,"313":35.13837432861328,"314":467.58941650390625,"315":437.1761169433594,"316":-120.00521087646484,"317":-410.4482421875,"318":-427.24542236328125,"319":466.8853454589844,"320":314.5418395996094,"321":935.8088989257812,"322":473.569580078125,"323":101.26726531982422,"324":-59.594566345214844,"325":-146.15150451660156,"326":-435.5101318359375,"327":850.93798828125,"328":-118.83746337890625,"329":-699.1976318359375,"330":-363.6695556640625,"331":395.89251708984375,"332":-509.1080627441406,"333":846.9494018554688,"334":-14.74870777130127,"335":347.2984619140625,"336":-826.1104125976562,"337":488.28680419921875,"338":270.5201110839844,"339":19.82335662841797,"340":9.859090805053711,"341":-0.32431086897850037,"342":1.743653655052185,"343":-2.298215866088867,"344":-3.172182083129883,"345":3.4159457683563232,"346":1.1751041412353516,"347":-0.2660011947154999,"348":0.04523448646068573,"349":-11.0254545211792,"350":0.6002892851829529,"351":1.0567606687545776,"352":0.3938678503036499,"353":-0.21299855411052704,"354":0.25949785113334656,"355":0.19524027407169342,"356":-0.8416645526885986,"357":0.23902498185634613,"358":-0.3731359839439392,"359":1.498685359954834,"360":-0.8477974534034729,"361":-1.59578537940979,"362":-1.9980782270431519,"363":3.988677740097046,"364":-1.5746570825576782,"365":0.7929819226264954,"366":-3.0699338912963867,"367":2.169318675994873,"368":0.05463847890496254,"369":-3.2807095050811768,"370":-0.8468539118766785,"371":-1.2540897130966187,"372":-3.7238292694091797,"373":-2.021502733230591,"374":-3.324798345565796,"375":1.9624252319335938,"376":-6.674373149871826,"377":0.6148713827133179,"378":0.4716919958591461,"379":1.02927565574646,"380":3.9299581050872803,"381":4.391058444976807,"382":-0.5009592771530151,"383":1.9966962337493896,"384":-2.7306270599365234,"385":3.9919331073760986,"386":1.919090747833252,"387":0.7689005136489868,"388":4.285841464996338,"389":0.0058842008002102375,"390":-0.9322465658187866,"391":1.5812116861343384,"392":-1.5214470624923706,"393":-0.8849126100540161,"394":-0.7739945650100708,"395":1.1620961427688599,"396":0.9184043407440186,"397":-0.4581828713417053,"398":0.7008488774299622,"399":1.3424712419509888,"400":-1.4281880855560303,"401":-1.3856059312820435,"402":-1.4632271528244019,"403":-0.0569547601044178,"404":3.2304928302764893,"405":-0.7751176953315735,"406":-1.3243687152862549,"407":-3.386801242828369,"408":-0.311684250831604,"409":-8.302774429321289,"410":-3.4884841442108154,"411":0.9565585851669312,"412":1.7980215549468994,"413":2.5508317947387695,"414":-2.406191825866699,"415":4.270799160003662,"416":-6.1631388664245605,"417":-0.5664516687393188,"418":0.6986790299415588,"419":-0.02609926275908947,"420":0.3172810971736908,"421":2.8974387645721436,"422":-1.0213278532028198,"423":-0.23354297876358032,"424":-2.012465000152588,"425":16.59309959411621,"426":14.357503890991211,"427":-12.095032691955566,"428":12.774145126342773,"429":2.5383355617523193,"430":-45.81842041015625,"431":15.86634349822998,"432":6.977441787719727,"433":16.75090980529785,"434":-20.545455932617188,"435":3.677016258239746,"436":6.28751802444458,"437":-14.7237548828125,"438":53.809730529785156,"439":-7.489650726318359,"440":15.516002655029297,"441":-41.93037796020508,"442":-4.672426700592041,"443":-2.680163621902466,"444":-0.7058616280555725,"445":17.19064712524414,"446":-8.981049537658691,"447":-35.78798294067383,"448":3.676326036453247,"449":-1.54633367061615,"450":-7.001476764678955,"451":2.7897419929504395,"452":-15.475872039794922,"453":-72.5479965209961,"454":-5.062524318695068,"455":12.411885261535645,"456":-21.2215518951416,"457":32.00053405761719,"458":8.993592262268066,"459":-8.886483192443848,"460":2.334761381149292,"461":-6.1244401931762695,"462":11.990449905395508,"463":12.115896224975586,"464":12.716103553771973,"465":-6.358600616455078,"466":-17.76528549194336,"467":-24.742603302001953,"468":7.697993278503418,"469":15.194387435913086,"470":-19.002532958984375,"471":-2.495851516723633,"472":49.9830436706543,"473":-19.977540969848633,"474":9.844430923461914,"475":-2.449364423751831,"476":1.5609955787658691,"477":-0.9207040667533875,"478":-5.158566474914551,"479":-12.702869415283203,"480":1.1502761840820312,"481":0.5951226353645325,"482":-1.3447449207305908,"483":35.269222259521484,"484":9.025848388671875,"485":11.58273696899414,"486":37.01844787597656,"487":1.1119829416275024,"488":-5.235697269439697,"489":-4.664724826812744,"490":-15.455196380615234,"491":12.543148040771484,"492":-3.2881104946136475,"493":13.793642044067383,"494":9.810083389282227,"495":21.74213218688965,"496":6.3798508644104,"497":-0.789774477481842,"498":-5.148966312408447,"499":1.2152564525604248,"500":-2.584512233734131,"501":1.6010382175445557,"502":1.8105970621109009,"503":33.89462661743164,"504":-1.1153638362884521,"505":14.656913757324219,"506":28.723499298095703,"507":-13.031159400939941,"508":-24.777843475341797,"509":-12.243570327758789,"510":-470.34912109375,"511":-321.2403869628906,"512":219.37075805664062,"513":-124.82311248779297,"514":-291.7205810546875,"515":225.13980102539062,"516":-431.9549865722656,"517":164.20509338378906,"518":-216.188720703125,"519":246.2915496826172,"520":330.74041748046875,"521":461.92193603515625,"522":193.55979919433594,"523":-409.9053039550781,"524":-496.0755310058594,"525":-497.9263610839844,"526":-505.5035095214844,"527":-3.3324034214019775,"528":-421.26959228515625,"529":232.97406005859375,"530":142.96932983398438,"531":442.0602722167969,"532":-219.56179809570312,"533":628.1631469726562,"534":-229.29193115234375,"535":284.82550048828125,"536":181.73800659179688,"537":375.31744384765625,"538":363.7290954589844,"539":-350.91107177734375,"540":-165.03750610351562,"541":175.3298797607422,"542":228.7887725830078,"543":189.7249298095703,"544":392.6103515625,"545":-297.8114929199219,"546":191.6116180419922,"547":-43.90802764892578,"548":183.42127990722656,"549":-25.361473083496094,"550":-346.61285400390625,"551":-566.2843627929688,"552":-460.43768310546875,"553":105.49647521972656,"554":492.10235595703125,"555":705.9100341796875,"556":-235.9881591796875,"557":-105.8455810546875,"558":-161.24093627929688,"559":-399.6097412109375,"560":-254.96292114257812,"561":-392.94842529296875,"562":-137.14239501953125,"563":213.4672393798828,"564":-150.2501983642578,"565":302.03582763671875,"566":-83.18785858154297,"567":-516.154296875,"568":404.9447937011719,"569":529.6240234375,"570":434.9829406738281,"571":245.9098663330078,"572":-369.5906066894531,"573":-529.2498168945312,"574":301.5944519042969,"575":202.48036193847656,"576":389.7831115722656,"577":-202.61427307128906,"578":-28.544937133789062,"579":-554.22607421875,"580":-1074.10546875,"581":-106.01178741455078,"582":525.7103881835938,"583":24.669641494750977,"584":-310.3835754394531,"585":-185.0283203125,"586":378.087646484375,"587":-250.46826171875,"588":616.583984375,"589":61.770591735839844,"590":117.64390563964844,"591":-368.2931823730469,"592":174.8058319091797,"593":81.26236724853516,"594":153.29364013671875,"595":70.94712829589844,"596":65.7126235961914,"597":-106.20228576660156,"598":111.11270904541016,"599":65.24994659423828,"600":52.28645706176758,"601":56.784820556640625,"602":-541.55908203125,"603":72.93377685546875,"604":-108.85891723632812,"605":-70.00669860839844,"606":-65.48301696777344,"607":-89.48038482666016,"608":24.604883193969727,"609":-45.5736083984375,"610":71.5107192993164,"611":48.2492561340332,"612":-57.35291290283203,"613":45.484291076660156,"614":-42.15208435058594,"615":-64.96766662597656,"616":59.981536865234375,"617":71.32945251464844,"618":-82.5856704711914,"619":7.317337512969971,"620":-92.578369140625,"621":-75.15144348144531,"622":-71.21356201171875,"623":-81.3671646118164,"624":124.46762084960938,"625":79.26992797851562,"626":13.252354621887207,"627":76.13938903808594,"628":-66.79306030273438,"629":-63.62755584716797,"630":68.09305572509766,"631":-66.10581970214844,"632":86.96468353271484,"633":-29.971603393554688,"634":75.61581420898438,"635":73.87428283691406,"636":-36.46424865722656,"637":97.55828094482422,"638":72.95379638671875,"639":-44.00859832763672,"640":64.41532135009766,"641":83.26815032958984,"642":67.015380859375,"643":69.7632827758789,"644":93.95642852783203,"645":75.19297790527344,"646":60.640525817871094,"647":286.3796691894531,"648":-82.33935546875,"649":47.570091247558594,"650":-39.668968200683594,"651":83.83525848388672,"652":101.85603332519531,"653":45.81565856933594,"654":-41.64108657836914,"655":78.72991943359375,"656":-37.72514343261719,"657":-70.46978759765625,"658":-57.517677307128906,"659":-81.10447692871094,"660":-96.89053344726562,"661":-86.64949035644531,"662":-12.265804290771484,"663":93.02760314941406,"664":34.91999435424805,"665":138.65008544921875,"666":61.354339599609375,"667":-84.85417938232422,"668":-71.90328216552734,"669":78.62396240234375,"670":55.107608795166016,"671":122.99584197998047,"672":48.04973220825195,"673":44.76268005371094,"674":-67.82488250732422,"675":34.31615447998047,"676":151.9376983642578,"677":-70.78112030029297,"678":-61.033531188964844,"679":-78.37105560302734,"680":5.089746952056885,"681":1.0926940441131592,"682":-0.3199162781238556,"683":-0.02117077074944973,"684":-0.0017757638124749064,"685":0.2388976812362671,"686":0.12141325324773788,"687":-2.0072762966156006,"688":-0.46080800890922546,"689":-6.614973545074463,"690":-0.21898822486400604,"691":-0.9124236702919006,"692":0.614479124546051,"693":-0.68171626329422,"694":-2.8791182041168213,"695":6.490470886230469,"696":-1.2250484228134155,"697":0.15514156222343445,"698":0.8201515078544617,"699":2.7293004989624023,"700":0.9217903017997742,"701":-0.31447264552116394,"702":0.7771638631820679,"703":-1.158857822418213,"704":-0.8045139908790588,"705":-1.2397316694259644,"706":0.6907849311828613,"707":1.005135178565979,"708":-6.852145195007324,"709":0.9234851002693176,"710":-1.312535047531128,"711":-0.7968428730964661,"712":1.095350980758667,"713":-0.4321114718914032,"714":-0.37269189953804016,"715":-0.3519779443740845,"716":-1.907749056816101,"717":-2.578946828842163,"718":0.09291605651378632,"719":1.2001703977584839,"720":1.0870685577392578,"721":1.156998872756958,"722":-0.9351693987846375,"723":-1.0774166584014893,"724":1.5297430753707886,"725":-0.4957024157047272,"726":-0.7500691413879395,"727":0.18733491003513336,"728":0.025536194443702698,"729":-0.5819076299667358,"730":-1.66627037525177,"731":1.6164027452468872,"732":-0.6738545894622803,"733":0.07861801981925964,"734":1.1291933059692383,"735":-1.817173957824707,"736":-0.6070393919944763,"737":2.943824052810669,"738":0.3053346574306488,"739":-1.2565768957138062,"740":-0.08057622611522675,"741":0.252441942691803,"742":2.3164713382720947,"743":-1.8815761804580688,"744":0.48401522636413574,"745":0.5409276485443115,"746":1.2263137102127075,"747":0.37585654854774475,"748":-2.822295904159546,"749":0.5534231066703796,"750":-2.495511531829834,"751":0.03538462147116661,"752":0.9762336015701294,"753":-0.1121031865477562,"754":0.4545030891895294,"755":-1.1602753400802612,"756":-1.332304835319519,"757":0.19692713022232056,"758":-0.6942296624183655,"759":-0.6066474914550781,"760":-0.04532734304666519,"761":-3.6139650344848633,"762":0.4280226528644562,"763":2.600468158721924,"764":-3.3971176147460938,"765":-4.697132110595703,"766":27.121631622314453,"767":13.565352439880371,"768":-7.622408866882324,"769":-9.454269409179688,"770":-51.25188446044922,"771":-150.87326049804688,"772":17.443355560302734,"773":-24.956390380859375,"774":4.621929168701172,"775":16.725162506103516,"776":10.074280738830566,"777":-15.845672607421875,"778":-12.537508964538574,"779":-62.234859466552734,"780":-15.983793258666992,"781":-79.91963958740234,"782":30.574832916259766,"783":-26.254255294799805,"784":-33.0423583984375,"785":2.194631576538086,"786":36.424598693847656,"787":-21.55869483947754,"788":73.50899505615234,"789":-5.380207061767578,"790":3.661612033843994,"791":3.774071216583252,"792":9.11924934387207,"793":4.5380377769470215,"794":-47.12314987182617,"795":3.5228469371795654,"796":-96.21399688720703,"797":-87.26775360107422,"798":-41.670047760009766,"799":27.16514778137207,"800":-32.371822357177734,"801":8.271927833557129,"802":10.620328903198242,"803":91.04570007324219,"804":10.68923568725586,"805":-9.049003601074219,"806":-58.33537292480469,"807":-9.864814758300781,"808":-28.043272018432617,"809":32.20942306518555,"810":-49.44685363769531,"811":-20.518030166625977,"812":38.071285247802734,"813":-21.66064453125,"814":-39.23957824707031,"815":-7.5982770919799805,"816":-22.24633026123047,"817":-3.2521276473999023,"818":-32.163021087646484,"819":8.146356582641602,"820":14.802740097045898,"821":-20.04801368713379,"822":-32.984439849853516,"823":29.40472984313965,"824":-93.0384750366211,"825":27.976343154907227,"826":8.529248237609863,"827":19.057212829589844,"828":-37.53744125366211,"829":28.658525466918945,"830":2.275299310684204,"831":7.854751110076904,"832":-25.452011108398438,"833":-0.07264343649148941,"834":-20.9786434173584,"835":36.785430908203125,"836":-30.62094497680664,"837":64.07830810546875,"838":5.027237415313721,"839":-15.282745361328125,"840":120.98727416992188,"841":18.751983642578125,"842":-14.478522300720215,"843":25.479276657104492,"844":33.375213623046875,"845":40.493858337402344,"846":5.65138578414917,"847":18.059911727905273,"848":2.8304367065429688,"849":-22.723876953125,"850":-16.90056800842285,"851":-1.2485753297805786,"852":-0.6773748993873596,"853":-0.5666186809539795,"854":-0.8573771119117737,"855":-3.5663297176361084,"856":6.815814971923828,"857":-2.0038421154022217,"858":1.8762083053588867,"859":-5.938035011291504,"860":-1.9215091466903687,"861":3.8357138633728027,"862":-11.823016166687012,"863":3.2218775749206543,"864":19.784250259399414,"865":-3.0582382678985596,"866":-3.6482021808624268,"867":-2.0085599422454834,"868":1.695184588432312,"869":-4.8700947761535645,"870":-2.1130168437957764,"871":3.6034693717956543,"872":1.133280634880066,"873":-2.479430913925171,"874":-1.8513340950012207,"875":-6.431305885314941,"876":1.3942192792892456,"877":-3.0796308517456055,"878":-13.372882843017578,"879":0.8850792050361633,"880":2.828995704650879,"881":-2.4419002532958984,"882":-5.337288856506348,"883":3.042633533477783,"884":-1.2273370027542114,"885":1.0018881559371948,"886":4.823524475097656,"887":2.4448394775390625,"888":-3.3613624572753906,"889":1.908921241760254,"890":-10.490511894226074,"891":3.537541627883911,"892":-6.426853656768799,"893":2.983597755432129,"894":1.1971462965011597,"895":-4.751988887786865,"896":1.2800345420837402,"897":6.344090938568115,"898":28.17987632751465,"899":9.915642738342285,"900":11.572914123535156,"901":0.7582395672798157,"902":1.744191288948059,"903":1.4380460977554321,"904":0.24761155247688293,"905":-9.501794815063477,"906":2.1680362224578857,"907":-0.9478261470794678,"908":2.4265291690826416,"909":-10.981465339660645,"910":-1.2361211776733398,"911":0.22987502813339233,"912":0.10621391236782074,"913":1.0332039594650269,"914":-0.47342780232429504,"915":2.203711748123169,"916":-1.4107240438461304,"917":5.386092185974121,"918":0.657806932926178,"919":-17.828474044799805,"920":1.8170695304870605,"921":1.1572939157485962,"922":2.557887554168701,"923":-1.1121912002563477,"924":1.0004100799560547,"925":0.8453450798988342,"926":4.836580276489258,"927":1.0343142747879028,"928":-2.5587728023529053,"929":-1.2904438972473145,"930":-2.4693689346313477,"931":3.1000120639801025,"932":1.8740819692611694,"933":-2.6447253227233887,"934":-5.719409465789795,"935":53.85960388183594,"936":8.858121871948242,"937":67.29619598388672,"938":31.50994873046875,"939":51.92749786376953,"940":1.9432322978973389,"941":141.95904541015625,"942":0.9494071006774902,"943":20.321311950683594,"944":6.570608615875244,"945":-7.308211803436279,"946":13.473031997680664,"947":-10.123440742492676,"948":-11.973871231079102,"949":0.5737045407295227,"950":38.20319366455078,"951":4.156073093414307,"952":-62.189735412597656,"953":5.434449672698975,"954":7.505743026733398,"955":-6.214349269866943,"956":28.802627563476562,"957":-1.5942094326019287,"958":-1.5173676013946533,"959":1.6283859014511108,"960":-9.245939254760742,"961":9.1322660446167,"962":-41.66916275024414,"963":-46.940494537353516,"964":-23.423627853393555,"965":8.944389343261719,"966":-12.30154800415039,"967":50.084800720214844,"968":14.285499572753906,"969":-18.125770568847656,"970":-9.253003120422363,"971":-16.772300720214844,"972":-51.1126594543457,"973":3.156808614730835,"974":-31.22287368774414,"975":12.218854904174805,"976":-7.702570915222168,"977":1.5735812187194824,"978":-9.559507369995117,"979":3.690274477005005,"980":-19.45246124267578,"981":1.8059794902801514,"982":24.720378875732422,"983":2.436121702194214,"984":0.7133461236953735,"985":5.308075428009033,"986":2.2457759380340576,"987":5.732625961303711,"988":0.22145794332027435,"989":-4.973372936248779,"990":18.299335479736328,"991":-9.869597434997559,"992":-8.943954467773438,"993":-2.431663751602173,"994":-24.47442054748535,"995":-13.655149459838867,"996":-6.0149126052856445,"997":1.330878734588623,"998":-2.2087507247924805,"999":-2.030900478363037,"1000":-30.04520034790039,"1001":-3.2197325229644775,"1002":-28.759679794311523,"1003":51.442474365234375,"1004":4.225499153137207,"1005":38.383914947509766,"1006":8.27450180053711,"1007":-17.408842086791992,"1008":-22.552167892456055,"1009":3.318168878555298,"1010":13.889360427856445,"1011":40.822261810302734,"1012":-2.2536022663116455,"1013":13.791746139526367,"1014":-10.493231773376465,"1015":7.123255252838135,"1016":16.334917068481445,"1017":-15.208185195922852,"1018":-9.214326858520508,"1019":36.694461822509766,"1020":3.105539560317993,"1021":-0.285675972700119,"1022":1.051742434501648,"1023":-1.9595928192138672,"1024":-1.0087594985961914,"1025":5.808687686920166,"1026":0.6931658983230591,"1027":1.1409311294555664,"1028":-0.5230329036712646,"1029":-5.874812602996826,"1030":0.3372660279273987,"1031":2.5053653717041016,"1032":1.0881948471069336,"1033":-2.117623805999756,"1034":-0.36587902903556824,"1035":-1.0116673707962036,"1036":-2.0481083393096924,"1037":-0.490061491727829,"1038":-0.034058816730976105,"1039":2.6364593505859375,"1040":1.693866491317749,"1041":0.6500933170318604,"1042":2.9530930519104004,"1043":0.875799834728241,"1044":-0.4095134735107422,"1045":0.22197182476520538,"1046":0.30398574471473694,"1047":-5.470980644226074,"1048":-1.1856064796447754,"1049":0.34191957116127014,"1050":0.4948470890522003,"1051":0.2313598245382309,"1052":1.5303497314453125,"1053":-0.5508586764335632,"1054":0.5867847204208374,"1055":2.6452980041503906,"1056":-5.60716438293457,"1057":-0.3721591830253601,"1058":-0.04823435842990875,"1059":-1.7294342517852783,"1060":-0.09372889995574951,"1061":2.247159957885742,"1062":2.6149933338165283,"1063":5.623336315155029,"1064":-3.2543559074401855,"1065":-0.21419502794742584,"1066":0.29128193855285645,"1067":-2.119959831237793,"1068":1.8683656454086304,"1069":1.7412362098693848,"1070":-1.8254499435424805,"1071":-2.841036319732666,"1072":-0.43040400743484497,"1073":-0.21706660091876984,"1074":-2.5157172679901123,"1075":-2.397174119949341,"1076":0.554196298122406,"1077":0.6640797257423401,"1078":2.2636497020721436,"1079":3.302490472793579,"1080":-1.965575098991394,"1081":1.174639344215393,"1082":0.048538416624069214,"1083":-0.8434550166130066,"1084":1.1045149564743042,"1085":0.6320613622665405,"1086":2.3003289699554443,"1087":0.4101155698299408,"1088":-0.5106781721115112,"1089":2.265850067138672,"1090":-6.812277793884277,"1091":-1.6421380043029785,"1092":-0.3100496232509613,"1093":0.8778412938117981,"1094":0.14984473586082458,"1095":1.1268246173858643,"1096":-8.705467224121094,"1097":-0.8614470362663269,"1098":1.0505942106246948,"1099":0.6662041544914246,"1100":2.0809218883514404,"1101":-1.9007989168167114,"1102":-2.137828826904297,"1103":-0.5689581632614136,"1104":-0.8326261639595032,"1105":-107.14178466796875,"1106":26.422317504882812,"1107":158.26034545898438,"1108":6.4114837646484375,"1109":-109.3600082397461,"1110":-102.84576416015625,"1111":-233.34939575195312,"1112":-50.50789260864258,"1113":-78.36004638671875,"1114":166.4801025390625,"1115":127.60494995117188,"1116":-111.2736587524414,"1117":118.02044677734375,"1118":-84.0711441040039,"1119":92.08777618408203,"1120":-78.46627807617188,"1121":30.983264923095703,"1122":85.1706771850586,"1123":-64.07276916503906,"1124":140.19400024414062,"1125":109.43153381347656,"1126":89.55083465576172,"1127":-86.81965637207031,"1128":-107.05613708496094,"1129":45.57063293457031,"1130":40.47317886352539,"1131":-96.9781494140625,"1132":93.54434204101562,"1133":109.989501953125,"1134":19.511215209960938,"1135":-155.56137084960938,"1136":-212.47991943359375,"1137":-156.88450622558594,"1138":76.89720153808594,"1139":20.833478927612305,"1140":-127.33180236816406,"1141":135.3251495361328,"1142":-156.60365295410156,"1143":43.03692626953125,"1144":-149.87625122070312,"1145":-118.90151977539062,"1146":102.69457244873047,"1147":-129.5016632080078,"1148":-147.36529541015625,"1149":120.11044311523438,"1150":128.65548706054688,"1151":74.01189422607422,"1152":38.505062103271484,"1153":-174.9949951171875,"1154":-11.067378044128418,"1155":-61.63127136230469,"1156":-144.09716796875,"1157":94.57389068603516,"1158":142.5830078125,"1159":-76.25709533691406,"1160":-10.531964302062988,"1161":-71.31159973144531,"1162":59.530189514160156,"1163":109.07862854003906,"1164":35.0599250793457,"1165":-36.9357795715332,"1166":122.10115051269531,"1167":131.47708129882812,"1168":-148.0204620361328,"1169":262.737060546875,"1170":161.7630157470703,"1171":105.47591400146484,"1172":98.5140609741211,"1173":-153.7540740966797,"1174":-125.55661010742188,"1175":-91.23147583007812,"1176":-108.76594543457031,"1177":-105.908203125,"1178":106.91683959960938,"1179":-21.67462730407715,"1180":-138.71908569335938,"1181":-19.66287612915039,"1182":71.70800018310547,"1183":-165.95474243164062,"1184":44.78784942626953,"1185":-131.82608032226562,"1186":-71.8284912109375,"1187":204.41944885253906,"1188":89.3912353515625,"1189":400.3623962402344,"1190":0.452832967042923,"1191":2.8107287883758545,"1192":-2.0351922512054443,"1193":-1.5293536186218262,"1194":6.217840671539307,"1195":0.7941504716873169,"1196":-2.3587746620178223,"1197":-0.9006253480911255,"1198":-2.4798948764801025,"1199":-2.6376395225524902,"1200":-7.437540054321289,"1201":0.33570900559425354,"1202":1.5361520051956177,"1203":-1.7540067434310913,"1204":0.45083776116371155,"1205":-1.0055973529815674,"1206":1.5192197561264038,"1207":5.920601844787598,"1208":-4.5697431564331055,"1209":1.6289794445037842,"1210":0.9684361815452576,"1211":4.052457332611084,"1212":-4.25404691696167,"1213":13.905755043029785,"1214":7.003084182739258,"1215":5.733644485473633,"1216":1.6699020862579346,"1217":3.7391092777252197,"1218":-3.609922170639038,"1219":-4.623428821563721,"1220":-4.478873252868652,"1221":1.532228708267212,"1222":-0.008768090978264809,"1223":3.630155324935913,"1224":10.52572250366211,"1225":-3.132484197616577,"1226":-8.310392379760742,"1227":-4.3016357421875,"1228":1.6595840454101562,"1229":-9.926276206970215,"1230":4.711206436157227,"1231":-10.682302474975586,"1232":15.86931324005127,"1233":-2.7669777870178223,"1234":-1.2026152610778809,"1235":-1.3763705492019653,"1236":-0.4440448582172394,"1237":-10.867270469665527,"1238":-0.09813908487558365,"1239":-0.06157197058200836,"1240":-3.90786075592041,"1241":-3.6764700412750244,"1242":0.3919857144355774,"1243":-0.4706142246723175,"1244":-0.22390395402908325,"1245":-9.355335235595703,"1246":-1.4169731140136719,"1247":-1.5152891874313354,"1248":-0.6743963956832886,"1249":-10.523895263671875,"1250":3.910961866378784,"1251":-1.0350539684295654,"1252":1.5647203922271729,"1253":2.9827792644500732,"1254":-6.093167304992676,"1255":2.828510046005249,"1256":0.8905988931655884,"1257":0.5430325269699097,"1258":-1.2630995512008667,"1259":8.372401237487793,"1260":26.575210571289062,"1261":-3.2528579235076904,"1262":-3.7673370838165283,"1263":-3.1414990425109863,"1264":0.10019797086715698,"1265":4.362464904785156,"1266":5.353177547454834,"1267":0.0924171581864357,"1268":-2.13893461227417,"1269":2.308189630508423,"1270":4.94165563583374,"1271":6.865447521209717,"1272":-3.4390687942504883,"1273":-1.6023430824279785,"1274":-0.8309744000434875,"1275":-61.79124450683594,"1276":-8.035558700561523,"1277":18.099288940429688,"1278":5.128035068511963,"1279":-34.7913818359375,"1280":10.942111015319824,"1281":-33.500240325927734,"1282":-10.617679595947266,"1283":-13.051244735717773,"1284":22.380264282226562,"1285":24.6274471282959,"1286":-42.1914176940918,"1287":70.14070892333984,"1288":6.61115837097168,"1289":-13.022948265075684,"1290":-51.51121139526367,"1291":-13.717423439025879,"1292":25.273595809936523,"1293":-26.162517547607422,"1294":6.681857109069824,"1295":-14.837932586669922,"1296":-9.610374450683594,"1297":-1.2686818838119507,"1298":-47.59003829956055,"1299":-12.061044692993164,"1300":21.090351104736328,"1301":21.781166076660156,"1302":-30.598716735839844,"1303":-0.9817725419998169,"1304":-2.6088104248046875,"1305":-17.85759925842285,"1306":-22.817890167236328,"1307":49.68971633911133,"1308":50.48820877075195,"1309":10.464615821838379,"1310":-26.354225158691406,"1311":-11.282977104187012,"1312":13.082727432250977,"1313":-17.423904418945312,"1314":59.314937591552734,"1315":-0.23631328344345093,"1316":-17.63451385498047,"1317":1.4951250553131104,"1318":28.49942970275879,"1319":19.33661460876465,"1320":8.37777328491211,"1321":-15.82409381866455,"1322":-25.04932403564453,"1323":-12.576679229736328,"1324":1.8035085201263428,"1325":6.214500904083252,"1326":12.036206245422363,"1327":10.755045890808105,"1328":7.973121643066406,"1329":9.18833065032959,"1330":33.27207565307617,"1331":-32.59154510498047,"1332":-16.199844360351562,"1333":-9.82285213470459,"1334":-2.6416494846343994,"1335":23.536277770996094,"1336":-112.48976135253906,"1337":-15.582218170166016,"1338":-38.8675422668457,"1339":-29.97380828857422,"1340":18.674341201782227,"1341":39.22008514404297,"1342":-21.750566482543945,"1343":64.31219482421875,"1344":-32.61568832397461,"1345":-23.383638381958008,"1346":10.415179252624512,"1347":-44.93755340576172,"1348":-54.251609802246094,"1349":15.092048645019531,"1350":-34.543216705322266,"1351":-39.31817626953125,"1352":99.77538299560547,"1353":-13.05297565460205,"1354":-0.2531184256076813,"1355":-23.750608444213867,"1356":68.83440399169922,"1357":-114.5177993774414,"1358":-27.482147216796875,"1359":20.491390228271484,"1360":-34.819053649902344,"1361":-4.727042198181152,"1362":12.972025871276855,"1363":-0.4493107199668884,"1364":7.728369235992432,"1365":11.054464340209961,"1366":-14.101417541503906,"1367":-6.232804775238037,"1368":-4.699948310852051,"1369":28.718158721923828,"1370":16.041034698486328,"1371":-6.000029563903809,"1372":11.387420654296875,"1373":-16.800222396850586,"1374":11.349726676940918,"1375":-10.84117317199707,"1376":-4.740214824676514,"1377":4.682607173919678,"1378":-2.0371124744415283,"1379":6.738980293273926,"1380":-6.257076740264893,"1381":-5.137447357177734,"1382":-3.4460272789001465,"1383":3.1850669384002686,"1384":0.13189548254013062,"1385":-11.85152816772461,"1386":-9.920353889465332,"1387":14.226659774780273,"1388":27.374286651611328,"1389":6.964512825012207,"1390":7.704311847686768,"1391":1.2874714136123657,"1392":-15.209088325500488,"1393":-16.054256439208984,"1394":11.718900680541992,"1395":3.666499376296997,"1396":-12.190378189086914,"1397":13.348005294799805,"1398":-11.067736625671387,"1399":-7.749091625213623,"1400":22.719947814941406,"1401":-4.72475528717041,"1402":-24.821409225463867,"1403":1.7951550483703613,"1404":10.40872573852539,"1405":-10.50934886932373,"1406":0.6355464458465576,"1407":-13.147749900817871,"1408":-5.273370742797852,"1409":-6.639309406280518,"1410":-10.288378715515137,"1411":9.004420280456543,"1412":6.1431379318237305,"1413":7.0919575691223145,"1414":-8.156559944152832,"1415":15.849900245666504,"1416":4.346438884735107,"1417":7.81553316116333,"1418":5.478243350982666,"1419":-2.683682680130005,"1420":-16.281570434570312,"1421":-3.343480110168457,"1422":9.700512886047363,"1423":-6.883530616760254,"1424":-3.0907649993896484,"1425":-0.2816750705242157,"1426":9.963168144226074,"1427":-1.8640563488006592,"1428":1.3340107202529907,"1429":-73.68627166748047,"1430":-6.372157573699951,"1431":0.7756279706954956,"1432":-5.734794616699219,"1433":10.296643257141113,"1434":-5.588481903076172,"1435":7.217248439788818,"1436":-2.2915711402893066,"1437":6.441014766693115,"1438":14.662569999694824,"1439":-0.7477079629898071,"1440":2.5513224601745605,"1441":26.393566131591797,"1442":-12.73878288269043,"1443":-8.539772033691406,"1444":12.766899108886719,"1445":-53.978431701660156,"1446":-78.05435180664062,"1447":-4.418050765991211,"1448":3.701563835144043,"1449":-8.09819221496582,"1450":-35.85796356201172,"1451":19.118528366088867,"1452":13.149820327758789,"1453":4.713037967681885,"1454":-141.44931030273438,"1455":7.270773410797119,"1456":12.386688232421875,"1457":-4.135303020477295,"1458":53.770042419433594,"1459":-8.640408515930176,"1460":0.9851250052452087,"1461":-16.33140754699707,"1462":3.7946600914001465,"1463":-9.39208984375,"1464":-9.419493675231934,"1465":0.755634605884552,"1466":12.89082145690918,"1467":55.480045318603516,"1468":7.581952095031738,"1469":-4.329826354980469,"1470":-71.65430450439453,"1471":8.000115394592285,"1472":11.759653091430664,"1473":-52.63374710083008,"1474":-6.634334087371826,"1475":12.513296127319336,"1476":-3.9149465560913086,"1477":8.116484642028809,"1478":10.236598014831543,"1479":29.976524353027344,"1480":-8.786523818969727,"1481":-0.07711191475391388,"1482":0.740246593952179,"1483":4.7618913650512695,"1484":-1.8002551794052124,"1485":-2.774905204772949,"1486":-12.722378730773926,"1487":-20.404247283935547,"1488":-0.6208908557891846,"1489":3.8621015548706055,"1490":-15.023202896118164,"1491":-4.657998085021973,"1492":8.572630882263184,"1493":-6.98991584777832,"1494":1.0622389316558838,"1495":-4.795356750488281,"1496":9.054608345031738,"1497":-8.139891624450684,"1498":-12.274469375610352,"1499":47.373619079589844,"1500":8.53591537475586,"1501":-3.433089256286621,"1502":-8.665834426879883,"1503":9.85590934753418,"1504":-52.94196701049805,"1505":8.853541374206543,"1506":-2.781979560852051,"1507":37.589683532714844,"1508":-9.390316009521484,"1509":-35.79400634765625,"1510":-0.7818174362182617,"1511":4.274419784545898,"1512":-4.097187519073486,"1513":-0.31295350193977356,"1514":3.5519931316375732,"1515":-2.9184117317199707,"1516":-1.9767816066741943,"1517":-10.014391899108887,"1518":1.1909185647964478,"1519":9.614213943481445,"1520":0.21169382333755493,"1521":8.222497940063477,"1522":-5.779494762420654,"1523":8.730850219726562,"1524":19.847780227661133,"1525":16.431549072265625,"1526":23.69655990600586,"1527":-1.91817045211792,"1528":-4.689265251159668,"1529":4.648550510406494,"1530":-0.16595031321048737,"1531":0.7535718679428101,"1532":0.3758764863014221,"1533":2.0952820777893066,"1534":16.881126403808594,"1535":-6.179058074951172,"1536":5.206950664520264,"1537":1.0317622423171997,"1538":1.0112863779067993,"1539":-14.05314826965332,"1540":-0.49613943696022034,"1541":-7.873648643493652,"1542":-8.484025001525879,"1543":-2.766045331954956,"1544":6.10781717300415,"1545":4.6992573738098145,"1546":-13.744884490966797,"1547":-7.5857439041137695,"1548":5.087531566619873,"1549":5.887415409088135,"1550":0.3176417350769043,"1551":16.02338409423828,"1552":0.15609878301620483,"1553":-2.829782724380493,"1554":1.8811125755310059,"1555":-1.7082661390304565,"1556":-3.963183879852295,"1557":-0.08617570996284485,"1558":-25.74897003173828,"1559":-14.183151245117188,"1560":1.7396714687347412,"1561":2.755155563354492,"1562":1.9278192520141602,"1563":-4.708134651184082,"1564":-5.2197675704956055,"1565":1.515845537185669,"1566":22.59183120727539,"1567":-2.299565076828003,"1568":1.2497035264968872,"1569":2.1486399173736572,"1570":0.7312456965446472,"1571":20.819658279418945,"1572":10.715788841247559,"1573":-33.53303527832031,"1574":-6.07274866104126,"1575":-3.9098448753356934,"1576":3.9110844135284424,"1577":6.913015842437744,"1578":-5.714119911193848,"1579":-25.0416259765625,"1580":0.3226091265678406,"1581":-4.057438850402832,"1582":3.6558637619018555,"1583":9.863702774047852,"1584":3.7158544063568115,"1585":28.878324508666992,"1586":-3.115844964981079,"1587":-21.25606346130371,"1588":-1.5193901062011719,"1589":-2.868762969970703,"1590":-3.6232171058654785,"1591":-4.1372971534729,"1592":27.68377685546875,"1593":-5.6428327560424805,"1594":-36.47746658325195,"1595":-2.0550248622894287,"1596":7.968483924865723,"1597":9.335840225219727,"1598":1.5966229438781738,"1599":12.287546157836914,"1600":49.14882278442383,"1601":-2.510308265686035,"1602":-3.710299491882324,"1603":0.23874610662460327,"1604":-3.815572738647461,"1605":-23.499549865722656,"1606":-10.862103462219238,"1607":5.864778518676758,"1608":-0.3733992874622345,"1609":3.801072359085083,"1610":-19.24163055419922,"1611":-7.5968451499938965,"1612":5.097009181976318,"1613":-4.379175186157227,"1614":-22.360977172851562,"1615":-8.399609565734863,"1616":-21.777782440185547,"1617":20.52981948852539,"1618":-16.680063247680664,"1619":-9.381569862365723,"1620":-56.73415756225586,"1621":-77.98963165283203,"1622":21.56603240966797,"1623":-29.36412811279297,"1624":-3.4065744876861572,"1625":44.72285079956055,"1626":25.43924331665039,"1627":-10.467642784118652,"1628":24.56230926513672,"1629":-32.36670684814453,"1630":-19.192886352539062,"1631":-60.11614990234375,"1632":31.44310760498047,"1633":-36.23591995239258,"1634":-14.504709243774414,"1635":3.1571543216705322,"1636":60.462032318115234,"1637":-10.369051933288574,"1638":73.75076293945312,"1639":-16.284154891967773,"1640":5.825616836547852,"1641":28.240768432617188,"1642":-1.4638402462005615,"1643":-6.842988967895508,"1644":-49.1053581237793,"1645":17.474149703979492,"1646":-102.56876373291016,"1647":-31.68600082397461,"1648":-186.51593017578125,"1649":25.433828353881836,"1650":-42.971214294433594,"1651":-34.269351959228516,"1652":7.967081546783447,"1653":97.87921905517578,"1654":4.481659889221191,"1655":-19.642858505249023,"1656":28.24219512939453,"1657":-9.818052291870117,"1658":-31.045475006103516,"1659":30.776470184326172,"1660":-73.00634002685547,"1661":-24.744380950927734,"1662":46.762847900390625,"1663":-28.858238220214844,"1664":-40.71014404296875,"1665":0.5128083229064941,"1666":-25.216350555419922,"1667":-10.290528297424316,"1668":-54.96788787841797,"1669":-8.105113983154297,"1670":14.019731521606445,"1671":-23.537527084350586,"1672":-36.54564666748047,"1673":24.45306968688965,"1674":-73.90798950195312,"1675":37.19823455810547,"1676":10.450162887573242,"1677":34.919921875,"1678":-33.539459228515625,"1679":38.24845504760742,"1680":5.794834613800049,"1681":18.27590560913086,"1682":-24.779386520385742,"1683":0.5301774740219116,"1684":-34.71113967895508,"1685":-32.9830322265625,"1686":-32.306732177734375,"1687":58.84855651855469,"1688":1.5175918340682983,"1689":-27.227235794067383,"1690":-117.67962646484375,"1691":25.206214904785156,"1692":-18.51998519897461,"1693":-45.916419982910156,"1694":31.050518035888672,"1695":60.857810974121094,"1696":1.4017775058746338,"1697":25.17520523071289,"1698":9.100666046142578,"1699":-49.16743087768555,"1700":2.2364423274993896,"1701":46.42431640625,"1702":6.718693733215332,"1703":-21.127466201782227,"1704":-5.884158134460449,"1705":8.399673461914062,"1706":-15.05593490600586,"1707":-6.667004108428955,"1708":7.940079689025879,"1709":-10.548375129699707,"1710":6.739684581756592,"1711":11.83241081237793,"1712":2.6283717155456543,"1713":-17.905376434326172,"1714":17.241539001464844,"1715":8.431004524230957,"1716":17.421302795410156,"1717":-5.04115104675293,"1718":-3.1933999061584473,"1719":9.340147018432617,"1720":-14.588202476501465,"1721":-64.41883850097656,"1722":-1.3093328475952148,"1723":-54.61739730834961,"1724":-82.80249786376953,"1725":-9.451497077941895,"1726":2.6283154487609863,"1727":-20.119258880615234,"1728":14.162870407104492,"1729":4.009239196777344,"1730":-1.372077465057373,"1731":-0.8843048810958862,"1732":-32.429500579833984,"1733":11.438742637634277,"1734":6.939003944396973,"1735":-7.5391645431518555,"1736":-35.560237884521484,"1737":-6.133707523345947,"1738":7.345364570617676,"1739":18.61805534362793,"1740":-30.759733200073242,"1741":-7.179603099822998,"1742":-13.798882484436035,"1743":12.407812118530273,"1744":6.362598419189453,"1745":15.868504524230957,"1746":3.256186008453369,"1747":-8.649222373962402,"1748":15.451427459716797,"1749":-8.951314926147461,"1750":6.314596176147461,"1751":-3.4293270111083984,"1752":17.757415771484375,"1753":39.0612678527832,"1754":17.626296997070312,"1755":-0.5777338743209839,"1756":11.749462127685547,"1757":-6.62114143371582,"1758":0.9320676326751709,"1759":7.521432876586914,"1760":-2.1857759952545166,"1761":-2.0514659881591797,"1762":-33.4255256652832,"1763":-13.67775821685791,"1764":-6.9276204109191895,"1765":-8.412464141845703,"1766":15.450227737426758,"1767":1.9671169519424438,"1768":-22.567224502563477,"1769":0.46283626556396484,"1770":-4.626412391662598,"1771":-2.7763164043426514,"1772":-4.9177398681640625,"1773":-71.5853271484375,"1774":9.213008880615234,"1775":8.283668518066406,"1776":-2.4816293716430664,"1777":-0.5465855002403259,"1778":-3.361126184463501,"1779":-1.094756841659546,"1780":-10.509037971496582,"1781":12.449736595153809,"1782":0.21858865022659302,"1783":-49.25741958618164,"1784":63.074405670166016,"1785":-72.19035339355469,"1786":13.170663833618164,"1787":32.23899459838867,"1788":-32.608314514160156,"1789":61.34904479980469,"1790":-30.731735229492188,"1791":-31.570993423461914,"1792":28.299558639526367,"1793":5.449099540710449,"1794":1.326452374458313,"1795":-7.609837532043457,"1796":-12.225914001464844,"1797":44.6577033996582,"1798":-55.84304428100586,"1799":6.448115825653076,"1800":-19.610347747802734,"1801":117.97234344482422,"1802":-18.51552391052246,"1803":49.321407318115234,"1804":78.02354431152344,"1805":-3.327442169189453,"1806":2.390225410461426,"1807":18.311050415039062,"1808":-4.690494537353516,"1809":20.885507583618164,"1810":14.180377960205078,"1811":-44.28356170654297,"1812":-4.567108631134033,"1813":2.918381452560425,"1814":58.929779052734375,"1815":-7.0889716148376465,"1816":-47.57160949707031,"1817":-37.99867248535156,"1818":19.03853416442871,"1819":7.590029716491699,"1820":-32.46794509887695,"1821":58.30007553100586,"1822":-10.759086608886719,"1823":7.024710178375244,"1824":-107.49837493896484,"1825":-16.207380294799805,"1826":14.648123741149902,"1827":23.2252197265625,"1828":-89.20542907714844,"1829":21.479764938354492,"1830":30.576759338378906,"1831":4.30332088470459,"1832":-11.028266906738281,"1833":-12.810681343078613,"1834":-62.71873474121094,"1835":-27.857059478759766,"1836":-12.075467109680176,"1837":1.3733524084091187,"1838":11.653812408447266,"1839":36.405487060546875,"1840":-23.524860382080078,"1841":-19.473037719726562,"1842":-0.017991848289966583,"1843":-7.641820907592773,"1844":22.705472946166992,"1845":-12.26937484741211,"1846":-4.218846321105957,"1847":-26.693819046020508,"1848":-15.616943359375,"1849":33.01758575439453,"1850":-7.768975257873535,"1851":20.2767276763916,"1852":27.258255004882812,"1853":-0.7908595204353333,"1854":-8.116764068603516,"1855":25.59537696838379,"1856":-16.904489517211914,"1857":15.576247215270996,"1858":-30.860801696777344,"1859":24.113475799560547,"1860":13.050652503967285,"1861":30.853702545166016,"1862":-2.676236867904663,"1863":-11.769925117492676,"1864":5.480964183807373,"1865":-1.0766395330429077,"1866":2.7874090671539307,"1867":27.343780517578125,"1868":6.8465576171875,"1869":36.96342468261719,"1870":7.396810531616211,"1871":6.912342071533203,"1872":-0.12015192210674286,"1873":14.269302368164062,"1874":-0.10261037200689316,"1875":53.81233215332031,"1876":14.223264694213867,"1877":-0.2608312964439392,"1878":5.417847633361816,"1879":-3.81486177444458,"1880":4.469275951385498,"1881":1.4920440912246704,"1882":19.401012420654297,"1883":-9.639154434204102,"1884":-6.615968227386475,"1885":34.97602081298828,"1886":50.305274963378906,"1887":11.283687591552734,"1888":-13.690451622009277,"1889":2.229079008102417,"1890":7.977397441864014,"1891":67.19634246826172,"1892":6.248962879180908,"1893":5.397007465362549,"1894":-3.7861135005950928,"1895":-3.7395741939544678,"1896":-19.3630313873291,"1897":-2.0264923572540283,"1898":-16.589529037475586,"1899":-7.409027099609375,"1900":-20.675445556640625,"1901":8.166759490966797,"1902":16.65732192993164,"1903":25.175674438476562,"1904":12.888632774353027,"1905":-28.820247650146484,"1906":22.791269302368164,"1907":-10.672640800476074,"1908":11.184289932250977,"1909":9.034598350524902,"1910":7.083790302276611,"1911":-4.461730003356934,"1912":16.908021926879883,"1913":21.446250915527344,"1914":0.9475102424621582,"1915":-14.851016998291016,"1916":-14.098106384277344,"1917":6.706957817077637,"1918":-6.781287670135498,"1919":-21.62987518310547,"1920":9.324238777160645,"1921":-6.445786952972412,"1922":2.634756088256836,"1923":-0.3747207224369049,"1924":8.757088661193848,"1925":4.455786228179932,"1926":8.446783065795898,"1927":-7.803199291229248,"1928":-5.2921648025512695,"1929":-7.605861663818359,"1930":5.336411476135254,"1931":-10.519449234008789,"1932":-11.605873107910156,"1933":-6.232117176055908,"1934":-2.8923802375793457,"1935":11.954191207885742,"1936":-8.684467315673828,"1937":-12.454584121704102,"1938":9.188931465148926,"1939":36.2044677734375,"1940":6.271131992340088,"1941":3.0866525173187256,"1942":8.800252914428711,"1943":-12.969619750976562,"1944":4.711859226226807,"1945":-22.73883056640625,"1946":-0.3961879312992096,"1947":23.664669036865234,"1948":-11.157691955566406,"1949":-12.567530632019043,"1950":-1.178285002708435,"1951":29.129159927368164,"1952":-11.430098533630371,"1953":46.18950653076172,"1954":10.353775024414062,"1955":6.400152206420898,"1956":0.2176491916179657,"1957":-5.480509281158447,"1958":0.08438173681497574,"1959":0.2657769024372101,"1960":1.2877404689788818,"1961":-2.052233934402466,"1962":-0.21228687465190887,"1963":-0.6043924689292908,"1964":-6.228734493255615,"1965":-0.16462476551532745,"1966":5.802618980407715,"1967":-1.150719404220581,"1968":0.4160943627357483,"1969":-0.47159168124198914,"1970":1.657942771911621,"1971":3.0543935298919678,"1972":-0.17691519856452942,"1973":1.0937025547027588,"1974":-1.0704585313796997,"1975":0.22047355771064758,"1976":0.3898901343345642,"1977":0.3493049144744873,"1978":1.5800999402999878,"1979":-0.9363805651664734,"1980":-2.3234472274780273,"1981":-0.09914379566907883,"1982":-2.196718454360962,"1983":-5.705145835876465,"1984":0.33245718479156494,"1985":-0.3895619809627533,"1986":3.3451600074768066,"1987":0.5574015378952026,"1988":0.0750756487250328,"1989":2.07077956199646,"1990":-2.6470518112182617,"1991":0.025459926575422287,"1992":0.5989786386489868,"1993":-0.007477357517927885,"1994":0.06556323170661926,"1995":-2.331113576889038,"1996":2.5891361236572266,"1997":1.264693260192871,"1998":0.12744705379009247,"1999":1.322840690612793,"2000":1.0952932834625244,"2001":-0.4649001955986023,"2002":-0.5865808129310608,"2003":-3.4387121200561523,"2004":-2.752744436264038,"2005":1.1610028743743896,"2006":-0.135260671377182,"2007":-0.5994065999984741,"2008":-0.2681524157524109,"2009":-0.41287657618522644,"2010":-0.5473648905754089,"2011":-0.1648927479982376,"2012":1.6004856824874878,"2013":0.341203898191452,"2014":-0.45433780550956726,"2015":3.1058764457702637,"2016":0.1363854557275772,"2017":2.2995214462280273,"2018":-1.1421834230422974,"2019":0.5571243762969971,"2020":-0.038428083062171936,"2021":1.4553837776184082,"2022":-0.3889482915401459,"2023":-0.12155179679393768,"2024":-9.964836120605469,"2025":-5.7707366943359375,"2026":-0.03978082537651062,"2027":2.329305410385132,"2028":0.23109304904937744,"2029":-0.020773138850927353,"2030":1.2044864892959595,"2031":-3.966057062149048,"2032":-0.6976860761642456,"2033":-0.7725585699081421,"2034":-0.16211465001106262,"2035":-3.0340754985809326,"2036":-0.9525544047355652,"2037":-0.2455211728811264,"2038":0.8712605237960815,"2039":-1.6870886087417603,"2040":59.72813415527344,"2041":-0.7813158631324768,"2042":-8.248066902160645,"2043":22.456266403198242,"2044":-3.8780221939086914,"2045":-16.612564086914062,"2046":5.637331485748291,"2047":0.01096081081777811,"2048":8.644803047180176,"2049":16.23192596435547,"2050":-20.54042625427246,"2051":1.0787121057510376,"2052":3.0624845027923584,"2053":1.9742727279663086,"2054":-22.831167221069336,"2055":-45.00128936767578,"2056":19.432445526123047,"2057":-21.322158813476562,"2058":-1.5701111555099487,"2059":-45.04379653930664,"2060":-2.3907880783081055,"2061":52.55281066894531,"2062":10.281044960021973,"2063":16.063556671142578,"2064":-12.039054870605469,"2065":4.899047374725342,"2066":10.494569778442383,"2067":-6.581542491912842,"2068":10.823612213134766,"2069":-10.051218032836914,"2070":19.75778579711914,"2071":14.466402053833008,"2072":8.576664924621582,"2073":-16.45765495300293,"2074":3.7363929748535156,"2075":0.13879254460334778,"2076":8.105461120605469,"2077":-2.700143814086914,"2078":18.290081024169922,"2079":11.074943542480469,"2080":-14.019299507141113,"2081":-9.74521255493164,"2082":-10.767438888549805,"2083":-4.861715316772461,"2084":-7.592313766479492,"2085":-4.480106830596924,"2086":-24.784637451171875,"2087":18.90462303161621,"2088":-17.777097702026367,"2089":13.258634567260742,"2090":-7.55135440826416,"2091":-16.982765197753906,"2092":-10.000799179077148,"2093":2.089682102203369,"2094":23.42436981201172,"2095":5.392545223236084,"2096":-10.781244277954102,"2097":-3.6195662021636963,"2098":15.728557586669922,"2099":-23.939943313598633,"2100":1.8169959783554077,"2101":-13.871573448181152,"2102":-12.739368438720703,"2103":-4.798481464385986,"2104":22.63706398010254,"2105":8.326610565185547,"2106":-5.629640579223633,"2107":-6.994350433349609,"2108":3.366914987564087,"2109":11.513656616210938,"2110":10.755239486694336,"2111":-7.403661727905273,"2112":3.8312935829162598,"2113":30.460247039794922,"2114":-22.935562133789062,"2115":-6.7933173179626465,"2116":-2.752528667449951,"2117":-26.836578369140625,"2118":5.1115031242370605,"2119":9.03051471710205,"2120":4.954514503479004,"2121":9.921916961669922,"2122":-11.520466804504395,"2123":44.48378372192383,"2124":-3.8646650314331055,"2125":-30.3487548828125,"2126":-3.734117031097412,"2127":-10.584242820739746,"2128":5.479737281799316,"2129":6.865690231323242,"2130":6.219035625457764,"2131":-11.45860481262207,"2132":-2.0695059299468994,"2133":25.456945419311523,"2134":-8.228204727172852,"2135":-9.02286434173584,"2136":-3.5565404891967773,"2137":-11.83120346069336,"2138":20.882122039794922,"2139":11.91361141204834,"2140":89.47612762451172,"2141":57.645774841308594,"2142":21.718233108520508,"2143":-16.736047744750977,"2144":-3.5306527614593506,"2145":-5.437860012054443,"2146":-31.425138473510742,"2147":22.021976470947266,"2148":12.550712585449219,"2149":1.4154834747314453,"2150":-67.923828125,"2151":13.956789016723633,"2152":-0.3257615566253662,"2153":-7.485471725463867,"2154":-15.154829978942871,"2155":13.315932273864746,"2156":15.07241439819336,"2157":24.91006088256836,"2158":-12.193679809570312,"2159":1.0913140773773193,"2160":4.924750328063965,"2161":8.481338500976562,"2162":8.024917602539062,"2163":35.35563278198242,"2164":7.728918075561523,"2165":23.173423767089844,"2166":-5.445483684539795,"2167":33.121219635009766,"2168":6.548529624938965,"2169":27.027311325073242,"2170":3.4609062671661377,"2171":5.608842849731445,"2172":26.38256072998047,"2173":10.545360565185547,"2174":25.500370025634766,"2175":-23.90705108642578,"2176":24.93731117248535,"2177":-4.732022762298584,"2178":-10.534399032592773,"2179":12.798309326171875,"2180":-3.2373013496398926,"2181":3.101987838745117,"2182":0.6714271903038025,"2183":23.51397705078125,"2184":3.8819494247436523,"2185":19.7703857421875,"2186":-5.759117126464844,"2187":-6.728842258453369,"2188":-4.955004692077637,"2189":-4.451979637145996,"2190":-11.880148887634277,"2191":-5.7759785652160645,"2192":8.919607162475586,"2193":8.050440788269043,"2194":-2.170865774154663,"2195":-2.554636001586914,"2196":-22.800949096679688,"2197":-3.7534711360931396,"2198":-26.59541130065918,"2199":29.878799438476562,"2200":-18.737171173095703,"2201":-0.28597894310951233,"2202":1.8107242584228516,"2203":-10.539215087890625,"2204":4.120354652404785,"2205":3.682812213897705,"2206":3.7231252193450928,"2207":-34.311038970947266,"2208":-37.490577697753906,"2209":-18.404340744018555,"2210":-68.38036346435547,"2211":-39.601173400878906,"2212":-11.207138061523438,"2213":-93.70782470703125,"2214":70.60993194580078,"2215":-116.54301452636719,"2216":88.7146224975586,"2217":43.41494369506836,"2218":-12.902613639831543,"2219":50.214263916015625,"2220":4.9798760414123535,"2221":-14.580918312072754,"2222":180.6720733642578,"2223":-32.87936019897461,"2224":120.25065612792969,"2225":-25.17548942565918,"2226":-75.24893188476562,"2227":-52.88535690307617,"2228":112.55482482910156,"2229":157.90789794921875,"2230":67.7149658203125,"2231":-126.86154174804688,"2232":-45.93244171142578,"2233":-88.89857482910156,"2234":51.6270751953125,"2235":14.183794021606445,"2236":-131.90081787109375,"2237":48.414466857910156,"2238":-99.17293548583984,"2239":-135.0602264404297,"2240":-101.22235107421875,"2241":-180.4268341064453,"2242":-128.26510620117188,"2243":143.64060974121094,"2244":67.31929016113281,"2245":-95.72886657714844,"2246":0.6373265981674194,"2247":-57.51961135864258,"2248":125.40719604492188,"2249":16.94708824157715,"2250":-82.54647064208984,"2251":96.14952850341797,"2252":53.67190933227539,"2253":-107.58891296386719,"2254":-108.3702392578125,"2255":38.53263854980469,"2256":-29.630767822265625,"2257":-124.99508666992188,"2258":25.341867446899414,"2259":-144.49085998535156,"2260":-62.530670166015625,"2261":-13.78455924987793,"2262":-39.45140838623047,"2263":86.27542114257812,"2264":10.998832702636719,"2265":37.485477447509766,"2266":-16.693960189819336,"2267":112.38919830322266,"2268":-18.610795974731445,"2269":-22.175931930541992,"2270":44.33915328979492,"2271":67.66207885742188,"2272":-12.192365646362305,"2273":17.685476303100586,"2274":3.026332139968872,"2275":-238.5462646484375,"2276":-49.375064849853516,"2277":54.42502975463867,"2278":-50.53030776977539,"2279":-247.64996337890625,"2280":69.6424331665039,"2281":-64.27947998046875,"2282":56.850624084472656,"2283":-120.41444396972656,"2284":30.40666961669922,"2285":21.656993865966797,"2286":64.009765625,"2287":-37.070159912109375,"2288":-0.08577118813991547,"2289":5.182163238525391,"2290":185.41018676757812,"2291":-48.54033279418945,"2292":-8.168057441711426,"2293":34.5866584777832,"2294":-6.809666156768799,"2295":-18.643407821655273,"2296":9.238055229187012,"2297":-8.378681182861328,"2298":-5.6244354248046875,"2299":-9.47503662109375,"2300":-5.14486837387085,"2301":-9.392550468444824,"2302":-11.612271308898926,"2303":-3.746250629425049,"2304":-1.9761993885040283,"2305":-7.134559154510498,"2306":8.05346393585205,"2307":-20.40751838684082,"2308":7.5214738845825195,"2309":-1.1027469635009766,"2310":11.707069396972656,"2311":23.82729148864746,"2312":2.2872605323791504,"2313":-3.893681526184082,"2314":-4.576681137084961,"2315":6.24069356918335,"2316":-2.1951444149017334,"2317":-6.016017913818359,"2318":22.63335418701172,"2319":-4.224856376647949,"2320":2.376952648162842,"2321":1.1755142211914062,"2322":-5.088021755218506,"2323":0.9992775917053223,"2324":8.282917976379395,"2325":12.160632133483887,"2326":3.2460544109344482,"2327":0.9929386377334595,"2328":29.12891387939453,"2329":-5.3949875831604,"2330":0.28798583149909973,"2331":13.7215576171875,"2332":-0.15555259585380554,"2333":-1.7073256969451904,"2334":-7.869754314422607,"2335":6.391128063201904,"2336":-1.5764241218566895,"2337":9.382960319519043,"2338":2.2423291206359863,"2339":7.38987398147583,"2340":0.7263252139091492,"2341":17.741670608520508,"2342":10.754107475280762,"2343":-11.521012306213379,"2344":-5.820666313171387,"2345":11.445416450500488,"2346":-2.794471502304077,"2347":4.2642598152160645,"2348":3.7796099185943604,"2349":-2.873845100402832,"2350":-4.586503028869629,"2351":1.9698654413223267,"2352":-4.274653911590576,"2353":-1.6964222192764282,"2354":-4.798873424530029,"2355":1.2127525806427002,"2356":4.188408851623535,"2357":6.503199100494385,"2358":1.5783696174621582,"2359":17.517864227294922,"2360":-14.244135856628418,"2361":-4.886010646820068,"2362":5.192191123962402,"2363":3.4767582416534424,"2364":-17.14629364013672,"2365":3.5396034717559814,"2366":-2.2625300884246826,"2367":13.26050090789795,"2368":-39.0460090637207,"2369":-9.86169719696045,"2370":-6.8952813148498535,"2371":5.37799596786499,"2372":35.387306213378906,"2373":-1.531877040863037,"2374":1.6690406799316406,"2375":-13.789587020874023,"2376":8.791831016540527,"2377":1.7444894313812256,"2378":5.136775016784668,"2379":2.1105144023895264,"2380":15.543390274047852,"2381":2.7266111373901367,"2382":-19.91770362854004,"2383":11.044368743896484,"2384":36.47816848754883,"2385":-11.469498634338379,"2386":45.00197219848633,"2387":11.22107982635498,"2388":9.786393165588379,"2389":-5.498628616333008,"2390":-16.418954849243164,"2391":48.24924850463867,"2392":-15.674928665161133,"2393":-10.568243980407715,"2394":0.41365307569503784,"2395":27.960988998413086,"2396":-0.718170166015625,"2397":-12.195099830627441,"2398":11.103145599365234,"2399":8.492401123046875,"2400":18.51154136657715,"2401":0.2999576926231384,"2402":7.900721549987793,"2403":-1.895341396331787,"2404":3.9280519485473633,"2405":-11.689480781555176,"2406":4.928569793701172,"2407":-4.953127384185791,"2408":-27.124189376831055,"2409":-31.944978713989258,"2410":12.358294486999512,"2411":9.699895858764648,"2412":4.360251426696777,"2413":-12.377989768981934,"2414":-11.327054023742676,"2415":-64.53048706054688,"2416":-14.652318000793457,"2417":7.474669933319092,"2418":8.817261695861816,"2419":7.52479362487793,"2420":-4.00874137878418,"2421":-6.643489837646484,"2422":-5.479865074157715,"2423":10.355278015136719,"2424":0.6412511467933655,"2425":-21.506683349609375,"2426":0.25006645917892456,"2427":-0.3756078779697418,"2428":-3.7064075469970703,"2429":1.6226606369018555,"2430":-3.4945411682128906,"2431":-3.558969736099243,"2432":-8.211926460266113,"2433":-4.966502666473389,"2434":22.374120712280273,"2435":10.460858345031738,"2436":-2.801600217819214,"2437":-13.817449569702148,"2438":-0.974601686000824,"2439":-30.278644561767578,"2440":-9.963068962097168,"2441":-13.662729263305664,"2442":-18.817581176757812,"2443":-3.2895617485046387,"2444":9.735199928283691,"2445":-10.931764602661133,"2446":-0.696761429309845,"2447":-3.9697697162628174,"2448":6.852782726287842,"2449":18.095399856567383,"2450":10.437102317810059,"2451":0.8117491006851196,"2452":-16.736438751220703,"2453":-11.498932838439941,"2454":-4.733774662017822,"2455":13.91011905670166,"2456":-15.413494110107422,"2457":-4.244694232940674,"2458":4.394904136657715,"2459":-1.581427812576294,"2460":8.076011657714844,"2461":-1.2489986419677734,"2462":-13.321029663085938,"2463":0.22229166328907013,"2464":-16.729206085205078,"2465":11.157150268554688,"2466":-1.6543341875076294,"2467":-0.10016296803951263,"2468":-1.482172966003418,"2469":8.516632080078125,"2470":2.9586734771728516,"2471":-4.544506549835205,"2472":-1.0051205158233643,"2473":-1.1847562789916992,"2474":4.022968769073486,"2475":-1.4520924091339111,"2476":-7.0079169273376465,"2477":8.331358909606934,"2478":1.0963183641433716,"2479":0.9982810020446777,"2480":4.837465286254883,"2481":-1.7874046564102173,"2482":1.5387544631958008,"2483":-4.696288585662842,"2484":-3.44271183013916,"2485":3.292325019836426,"2486":-1.478980541229248,"2487":5.178256034851074,"2488":3.1498310565948486,"2489":0.30261915922164917,"2490":1.9105263948440552,"2491":-3.228177309036255,"2492":-17.87455177307129,"2493":-10.431081771850586,"2494":-6.357402801513672,"2495":1.2098392248153687,"2496":-6.49828577041626,"2497":-1.4127442836761475,"2498":-1.0810816287994385,"2499":7.754358291625977,"2500":1.046728253364563,"2501":-11.488475799560547,"2502":-4.92711067199707,"2503":-2.2225000858306885,"2504":-5.094842433929443,"2505":-1.1539725065231323,"2506":0.7681084275245667,"2507":-6.266659259796143,"2508":-10.017083168029785,"2509":1.5462892055511475,"2510":-1.7727816104888916,"2511":0.6447713375091553,"2512":-3.137237548828125,"2513":6.160164833068848,"2514":3.428133726119995,"2515":-0.743794322013855,"2516":0.4182814657688141,"2517":-1.6318600177764893,"2518":-1.7975131273269653,"2519":-0.7185174822807312,"2520":-0.29837101697921753,"2521":0.8356688022613525,"2522":-0.008036661893129349,"2523":2.9588844776153564,"2524":-4.640929222106934,"2525":9.593721389770508,"2526":2.388317584991455,"2527":0.3231920897960663,"2528":-0.032671909779310226,"2529":2.0134618282318115,"2530":5.110869407653809,"2531":-10.250139236450195,"2532":1.9371838569641113,"2533":-0.9334442615509033,"2534":-29.741920471191406,"2535":10.905000686645508,"2536":2.3048248291015625,"2537":2.099517822265625,"2538":-4.261642932891846,"2539":2.426434278488159,"2540":9.604140281677246,"2541":-1.9139539003372192,"2542":0.4118179678916931,"2543":-4.090335845947266,"2544":-0.6686986684799194,"2545":6.127496242523193,"2546":3.0248146057128906,"2547":-3.404794454574585,"2548":-0.03819483518600464,"2549":-21.523622512817383,"2550":-14.692400932312012,"2551":-38.65999984741211,"2552":31.429344177246094,"2553":-6.770712375640869,"2554":-35.93794250488281,"2555":18.39796257019043,"2556":25.693702697753906,"2557":5.000117301940918,"2558":-12.875412940979004,"2559":4.003384590148926,"2560":-58.81512451171875,"2561":0.5675222873687744,"2562":4.308960437774658,"2563":-12.201651573181152,"2564":-0.05679880827665329,"2565":4.6678972244262695,"2566":340.9505920410156,"2567":-60.087154388427734,"2568":-12.026992797851562,"2569":63.735321044921875,"2570":-19.661222457885742,"2571":13.329339027404785,"2572":-8.417051315307617,"2573":28.325119018554688,"2574":-34.97718048095703,"2575":100.96762084960938,"2576":-88.42237854003906,"2577":-37.70537567138672,"2578":-0.4987535774707794,"2579":-25.804475784301758,"2580":-9.80226993560791,"2581":-30.162809371948242,"2582":0.5282455682754517,"2583":4.898548126220703,"2584":-36.552982330322266,"2585":-44.84696960449219,"2586":-56.68866729736328,"2587":-4.5083231925964355,"2588":-132.4458770751953,"2589":-3.7295541763305664,"2590":1.0713233947753906,"2591":9.263030052185059,"2592":-1.0195292234420776,"2593":44.030487060546875,"2594":-102.53583526611328,"2595":-9.291475296020508,"2596":9.070873260498047,"2597":-41.320030212402344,"2598":15.660011291503906,"2599":-11.151249885559082,"2600":3.0634496212005615,"2601":25.356504440307617,"2602":17.137353897094727,"2603":-3.264263153076172,"2604":-34.65312576293945,"2605":-68.787109375,"2606":14.568842887878418,"2607":-68.20113372802734,"2608":-6.710807800292969,"2609":44.400177001953125,"2610":25.616899490356445,"2611":-27.179380416870117,"2612":2.3342132568359375,"2613":3.3402187824249268,"2614":0.9532738924026489,"2615":7.498151779174805,"2616":-28.829191207885742,"2617":27.675809860229492,"2618":-4.430605888366699,"2619":3.4969565868377686,"2620":29.583450317382812,"2621":17.51505470275879,"2622":6.2315850257873535,"2623":-9.095270156860352,"2624":-7.870218753814697,"2625":68.38186645507812,"2626":-4.059989929199219,"2627":28.04145622253418,"2628":19.366283416748047,"2629":-15.566024780273438,"2630":14.17927360534668,"2631":14.236449241638184,"2632":6.922889232635498,"2633":7.055191516876221,"2634":4.124258518218994,"2635":-21.97432518005371,"2636":18.832937240600586,"2637":-5.48445463180542,"2638":-5.101531028747559,"2639":23.220487594604492,"2640":-59.590843200683594,"2641":-16.3994197845459,"2642":11.920502662658691,"2643":27.65948486328125,"2644":21.17630958557129,"2645":-3.5740973949432373,"2646":-14.95516586303711,"2647":2.8735291957855225,"2648":-3.8884639739990234,"2649":-61.490806579589844,"2650":24.262372970581055,"2651":-25.28240394592285,"2652":-29.308759689331055,"2653":5.892833232879639,"2654":1.488804817199707,"2655":15.765735626220703,"2656":63.665122985839844,"2657":4.788180351257324,"2658":2.456566572189331,"2659":21.484149932861328,"2660":17.77701187133789,"2661":-10.503937721252441,"2662":10.636455535888672,"2663":15.531261444091797,"2664":-3.284660816192627,"2665":93.20864868164062,"2666":-25.120975494384766,"2667":-48.224117279052734,"2668":7.874477863311768,"2669":15.192338943481445,"2670":-16.14144515991211,"2671":22.21799087524414,"2672":-7.233295917510986,"2673":-2.907761812210083,"2674":-13.868401527404785,"2675":9.25085163116455,"2676":51.0130615234375,"2677":22.964874267578125,"2678":-24.180570602416992,"2679":27.18160629272461,"2680":-33.30221939086914,"2681":3.712557315826416,"2682":-3.745284080505371,"2683":9.171223640441895,"2684":-29.389240264892578,"2685":-14.175047874450684,"2686":0.5078977346420288,"2687":-13.148164749145508,"2688":28.739240646362305,"2689":-21.579225540161133,"2690":0.8183395266532898,"2691":-13.431427001953125,"2692":18.711156845092773,"2693":-11.186548233032227,"2694":13.017614364624023,"2695":17.85184669494629,"2696":9.418511390686035,"2697":10.720697402954102,"2698":3.712303638458252,"2699":23.395254135131836,"2700":-44.33265686035156,"2701":-20.7171688079834,"2702":24.807817459106445,"2703":-1.6226094961166382,"2704":-14.169699668884277,"2705":46.73062515258789,"2706":-33.32371139526367,"2707":49.79669189453125,"2708":3.2503793239593506,"2709":-4.825416088104248,"2710":-46.88327407836914,"2711":-14.325300216674805,"2712":1.3966937065124512,"2713":23.175052642822266,"2714":0.4757671058177948,"2715":-4.784796714782715,"2716":0.20373407006263733,"2717":-17.114110946655273,"2718":34.96376419067383,"2719":20.207368850708008,"2720":14.62321662902832,"2721":-56.74197006225586,"2722":45.60748291015625,"2723":6.6952643394470215,"2724":70.06759643554688,"2725":8.43932819366455,"2726":36.25144958496094,"2727":11.08198070526123,"2728":-27.429533004760742,"2729":193.74005126953125,"2730":6.549142837524414,"2731":-6.894554615020752,"2732":-33.21487808227539,"2733":-9.23013687133789,"2734":10.342622756958008,"2735":16.52916717529297,"2736":48.373695373535156,"2737":21.35530662536621,"2738":-10.324335098266602,"2739":-10.218955039978027,"2740":0.9941572546958923,"2741":-47.59033203125,"2742":3.753938674926758,"2743":77.79953002929688,"2744":10.352530479431152,"2745":16.755098342895508,"2746":18.868637084960938,"2747":-39.529151916503906,"2748":106.54437255859375,"2749":28.478944778442383,"2750":13.290491104125977,"2751":-7.130157470703125,"2752":21.51943016052246,"2753":75.78880310058594,"2754":-59.40570831298828,"2755":79.2654800415039,"2756":69.33892822265625,"2757":-2.0771610736846924,"2758":31.551658630371094,"2759":-21.862558364868164,"2760":-33.13268280029297,"2761":115.01370239257812,"2762":70.7317123413086,"2763":-95.24455261230469,"2764":82.69263458251953,"2765":-23.51162338256836,"2766":-33.34498596191406,"2767":3.904275417327881,"2768":49.29327392578125,"2769":5.103691101074219,"2770":-3.02666974067688,"2771":-2.9499025344848633,"2772":-3.987309455871582,"2773":-14.221502304077148,"2774":-10.468596458435059,"2775":-101.8707504272461,"2776":30.04581069946289,"2777":-141.2173614501953,"2778":10.46444034576416,"2779":35.56270217895508,"2780":-3.0958855152130127,"2781":21.54583740234375,"2782":6.151384353637695,"2783":-49.33609390258789,"2784":-4.428039073944092,"2785":-14.008773803710938,"2786":25.677865982055664,"2787":3.05460262298584,"2788":4.732621669769287,"2789":118.49624633789062,"2790":-23.06974983215332,"2791":10.443831443786621,"2792":98.166748046875,"2793":3.586627721786499,"2794":5.762281894683838,"2795":-17.01625633239746,"2796":11.35708999633789,"2797":-20.73910903930664,"2798":-22.853775024414062,"2799":-10.531014442443848,"2800":36.76612091064453,"2801":-81.87512969970703,"2802":-4.827885627746582,"2803":-15.895374298095703,"2804":-40.7957878112793,"2805":126.73534393310547,"2806":-77.73304748535156,"2807":10.959736824035645,"2808":-22.52536392211914,"2809":-147.40664672851562,"2810":159.64501953125,"2811":-42.47367858886719,"2812":10.586281776428223,"2813":-131.40231323242188,"2814":43.053924560546875,"2815":60.453121185302734,"2816":-123.77381896972656,"2817":-148.48556518554688,"2818":-54.307491302490234,"2819":-66.54560852050781,"2820":-318.0846862792969,"2821":57.77309799194336,"2822":126.17495727539062,"2823":-40.89871597290039,"2824":26.06659507751465,"2825":-32.16465759277344,"2826":75.10137939453125,"2827":-10.517837524414062,"2828":168.13232421875,"2829":-75.55956268310547,"2830":204.84326171875,"2831":41.71094512939453,"2832":-3.994767189025879,"2833":43.00305938720703,"2834":34.632904052734375,"2835":4.720992565155029,"2836":43.468162536621094,"2837":66.50931549072266,"2838":-26.915069580078125,"2839":9.062132835388184,"2840":-42.597225189208984,"2841":126.5156478881836,"2842":37.05413818359375,"2843":51.20652389526367,"2844":42.11559295654297,"2845":-82.89289093017578,"2846":-31.453258514404297,"2847":-30.07903289794922,"2848":-81.29425811767578,"2849":43.43468475341797,"2850":-44.36725616455078,"2851":-64.04695129394531,"2852":-90.86348724365234,"2853":92.76663208007812,"2854":6.186205863952637,"2855":26.381975173950195,"2856":-45.1963005065918,"2857":0.8248571157455444,"2858":72.49015045166016,"2859":-19.013782501220703,"2860":84.63188934326172,"2861":116.13009643554688,"2862":-23.342668533325195,"2863":130.98931884765625,"2864":11.378411293029785,"2865":48.086753845214844,"2866":135.65731811523438,"2867":-4.35557222366333,"2868":-82.31476593017578,"2869":-64.96863555908203,"2870":46.195213317871094,"2871":24.512418746948242,"2872":-52.35954284667969,"2873":39.010047912597656,"2874":-153.26815795898438,"2875":-36.181907653808594,"2876":-33.41055679321289,"2877":-100.19332885742188,"2878":-11.016960144042969,"2879":-16.371679306030273,"2880":-27.099124908447266,"2881":-83.60844421386719,"2882":-138.6602020263672,"2883":-131.04168701171875,"2884":36.934661865234375,"2885":11.406600952148438,"2886":-7.395570755004883,"2887":7.352151393890381,"2888":-10.718830108642578,"2889":41.09789276123047,"2890":-35.88132858276367,"2891":3.877683639526367,"2892":13.171035766601562,"2893":16.507827758789062,"2894":-8.024449348449707,"2895":-87.78336334228516,"2896":-160.70736694335938,"2897":-2.992508888244629,"2898":-18.917003631591797,"2899":-3.903029441833496,"2900":-45.889705657958984,"2901":-11.820639610290527,"2902":-69.87589263916016,"2903":-52.538787841796875,"2904":-5.685542106628418,"2905":12.27718734741211,"2906":36.854095458984375,"2907":27.785995483398438,"2908":-16.987150192260742,"2909":-34.00201416015625,"2910":-31.18206024169922,"2911":-14.693894386291504,"2912":19.023046493530273,"2913":15.236299514770508,"2914":23.00133514404297,"2915":8.399632453918457,"2916":-23.44733238220215,"2917":-4.9171953201293945,"2918":-7.817499160766602,"2919":-12.408138275146484,"2920":9.145942687988281,"2921":-36.42822265625,"2922":8.517681121826172,"2923":58.579524993896484,"2924":4.37692928314209,"2925":-39.93583679199219,"2926":1.4164142608642578,"2927":-1.3050071001052856,"2928":-38.1868782043457,"2929":16.523813247680664,"2930":10.461040496826172,"2931":-11.051539421081543,"2932":13.524194717407227,"2933":-45.41435241699219,"2934":-6.709937572479248,"2935":-1.0437425374984741,"2936":8.87543773651123,"2937":0.02691967599093914,"2938":13.79578971862793,"2939":-45.452720642089844,"2940":36.74907684326172,"2941":17.72386932373047,"2942":-16.22102928161621,"2943":-15.685348510742188,"2944":-17.805252075195312,"2945":30.832080841064453,"2946":12.135457038879395,"2947":-38.507354736328125,"2948":-13.415122032165527,"2949":27.857341766357422,"2950":13.136969566345215,"2951":-19.16895866394043,"2952":12.420052528381348,"2953":1.25242018699646,"2954":-21.92082405090332,"2955":-17.1275577545166,"2956":-18.16421127319336,"2957":9.091553688049316,"2958":9.03857135772705,"2959":-0.4711044430732727,"2960":65.75241088867188,"2961":-21.024442672729492,"2962":34.77865982055664,"2963":-5.102153778076172,"2964":-15.234792709350586,"2965":-97.75762176513672,"2966":33.84127426147461,"2967":27.705032348632812,"2968":60.11647033691406,"2969":33.433162689208984,"2970":31.840253829956055,"2971":-13.7213773727417,"2972":36.25167465209961,"2973":29.120071411132812,"2974":71.2545166015625,"2975":11.466385841369629,"2976":14.326056480407715,"2977":-32.2039794921875,"2978":30.960521697998047,"2979":14.542509078979492,"2980":78.9683609008789,"2981":-64.13408660888672,"2982":2.1971185207366943,"2983":-93.28058624267578,"2984":-11.680992126464844,"2985":-27.185009002685547,"2986":-15.656841278076172,"2987":-30.26818084716797,"2988":30.960721969604492,"2989":21.126649856567383,"2990":15.200244903564453,"2991":72.35662841796875,"2992":64.5269546508789,"2993":12.864280700683594,"2994":75.8795166015625,"2995":-12.40575885772705,"2996":-27.077219009399414,"2997":-92.3282699584961,"2998":-39.01289749145508,"2999":16.686275482177734,"3000":-16.599578857421875,"3001":-16.684064865112305,"3002":-9.814284324645996,"3003":-11.87808609008789,"3004":13.386548042297363,"3005":20.681962966918945,"3006":10.131150245666504,"3007":-40.93040466308594,"3008":-19.358604431152344,"3009":-14.225773811340332,"3010":26.031841278076172,"3011":-23.228946685791016,"3012":24.17374610900879,"3013":-37.55512619018555,"3014":21.157068252563477,"3015":-37.87599182128906,"3016":19.12555503845215,"3017":40.6519775390625,"3018":23.382295608520508,"3019":-17.822612762451172,"3020":9.843064308166504,"3021":13.351435661315918,"3022":-2.8010308742523193,"3023":14.414070129394531,"3024":21.634593963623047,"3025":23.713274002075195,"3026":24.08545684814453,"3027":10.24514389038086,"3028":17.964130401611328,"3029":46.260772705078125,"3030":-13.380331039428711,"3031":91.57644653320312,"3032":12.451294898986816,"3033":-58.97550582885742,"3034":-17.975650787353516,"3035":3.2177340984344482,"3036":-19.43011474609375,"3037":-33.85539245605469,"3038":15.489444732666016,"3039":-29.943443298339844,"3040":-29.06418228149414,"3041":-17.680891036987305,"3042":12.822360038757324,"3043":28.8524169921875,"3044":101.1837158203125,"3045":-22.276569366455078,"3046":10.965200424194336,"3047":-7.227963447570801,"3048":-12.2395601272583,"3049":-88.78271484375,"3050":6.034333229064941,"3051":-12.452162742614746,"3052":10.909911155700684,"3053":-25.306596755981445,"3054":29.019996643066406,"3055":-30.90951919555664,"3056":10.8906831741333,"3057":144.30691528320312,"3058":-20.95220184326172,"3059":-34.75117874145508,"3060":44.44206237792969,"3061":-23.821435928344727,"3062":-1.019033670425415,"3063":1.2853819131851196,"3064":0.16224217414855957,"3065":11.481880187988281,"3066":-19.40469741821289,"3067":5.964974880218506,"3068":-1.8994349241256714,"3069":-23.394765853881836,"3070":-0.6154084205627441,"3071":7.2203497886657715,"3072":-26.356922149658203,"3073":5.056603908538818,"3074":-24.635095596313477,"3075":-8.605122566223145,"3076":-5.275111198425293,"3077":13.937983512878418,"3078":-9.101959228515625,"3079":-3.9940578937530518,"3080":6.961214065551758,"3081":55.767940521240234,"3082":-1.4996075630187988,"3083":37.24449157714844,"3084":-7.797436714172363,"3085":2.346776247024536,"3086":18.61106300354004,"3087":3.251716136932373,"3088":9.225560188293457,"3089":-4.773592948913574,"3090":11.084151268005371,"3091":-17.602914810180664,"3092":3.3977651596069336,"3093":31.840723037719727,"3094":0.003869391744956374,"3095":11.638374328613281,"3096":-2.9766464233398438,"3097":0.6904814839363098,"3098":59.03535842895508,"3099":-1.3235808610916138,"3100":59.09450912475586,"3101":-14.017618179321289,"3102":85.65122985839844,"3103":-3.239612340927124,"3104":6.258673667907715,"3105":-4.265577793121338,"3106":-3.3305656909942627,"3107":45.056243896484375,"3108":-11.93960952758789,"3109":-8.035003662109375,"3110":15.393706321716309,"3111":-14.814574241638184,"3112":-7.441862106323242,"3113":-32.574668884277344,"3114":4.2362823486328125,"3115":8.881747245788574,"3116":-5.475667953491211,"3117":-2.5751090049743652,"3118":14.53317642211914,"3119":32.98231887817383,"3120":8.678624153137207,"3121":3.9449880123138428,"3122":4.834946632385254,"3123":-9.72755241394043,"3124":12.1244535446167,"3125":-6.322576999664307,"3126":-8.976613998413086,"3127":-0.05073247477412224,"3128":0.08401628583669662,"3129":-13.638376235961914,"3130":20.008989334106445,"3131":-5.78316068649292,"3132":11.891443252563477,"3133":12.193493843078613,"3134":-8.93476390838623,"3135":-119.4146728515625,"3136":4.559195041656494,"3137":-4.619626045227051,"3138":9.540217399597168,"3139":-1.9687005281448364,"3140":22.425460815429688,"3141":-1.3561583757400513,"3142":4.280608654022217,"3143":-25.996780395507812,"3144":-6.933813571929932,"3145":-14.664856910705566,"3146":-26.08536720275879,"3147":27.562602996826172,"3148":-12.422767639160156,"3149":27.152027130126953,"3150":-53.895774841308594,"3151":-38.030128479003906,"3152":27.372772216796875,"3153":10.514036178588867,"3154":-5.999936103820801,"3155":0.18005254864692688,"3156":-13.714430809020996,"3157":4.708146095275879,"3158":-17.078214645385742,"3159":2.3729701042175293,"3160":19.243642807006836,"3161":42.47406768798828,"3162":-26.270263671875,"3163":36.87061309814453,"3164":54.61327362060547,"3165":4.986828804016113,"3166":-71.60980987548828,"3167":6.916308879852295,"3168":40.11650085449219,"3169":-18.714441299438477,"3170":-3.5949292182922363,"3171":-92.24539184570312,"3172":-20.618793487548828,"3173":-0.9328591823577881,"3174":-32.635860443115234,"3175":-2.6287343502044678,"3176":11.991323471069336,"3177":18.12579345703125,"3178":79.07737731933594,"3179":-29.693870544433594,"3180":7.414249420166016,"3181":37.95017623901367,"3182":5.036986827850342,"3183":30.63605499267578,"3184":3.413923740386963,"3185":13.567513465881348,"3186":8.690378189086914,"3187":24.033294677734375,"3188":-34.641685485839844,"3189":-17.106794357299805,"3190":9.44803237915039,"3191":-15.103462219238281,"3192":-30.2164306640625,"3193":-1.5323430299758911,"3194":-33.86062240600586,"3195":-2.707916259765625,"3196":-16.1306209564209,"3197":-3.2523818016052246,"3198":28.721216201782227,"3199":84.69733428955078,"3200":-13.90206527709961,"3201":3.493774890899658,"3202":7.328110218048096,"3203":13.578573226928711,"3204":30.867084503173828,"3205":-16.721233367919922,"3206":-36.70649337768555,"3207":-3.8167943954467773,"3208":-16.162866592407227,"3209":25.536760330200195,"3210":-6.1344404220581055,"3211":-5.227489948272705,"3212":5.905576705932617,"3213":0.43772223591804504,"3214":9.379167556762695,"3215":26.396989822387695,"3216":-6.566564559936523,"3217":75.10264587402344,"3218":10.673026084899902,"3219":-6.373280048370361,"3220":-5.041475296020508,"3221":8.80572509765625,"3222":11.250411987304688,"3223":-18.504714965820312,"3224":-8.787416458129883,"3225":12.050138473510742,"3226":41.26578903198242,"3227":-8.06803035736084,"3228":0.1809021234512329,"3229":10.591023445129395,"3230":1.4628574848175049,"3231":10.579401969909668,"3232":14.36483097076416,"3233":12.697078704833984,"3234":-5.8498005867004395,"3235":-16.064411163330078,"3236":17.645923614501953,"3237":7.291229724884033,"3238":-4.909274578094482,"3239":-8.02173900604248,"3240":6.923018932342529,"3241":-3.6973628997802734,"3242":-15.26750659942627,"3243":-5.961569786071777,"3244":8.879585266113281,"3245":5.16039514541626,"3246":32.1613883972168,"3247":-1.0300161838531494,"3248":-0.32466921210289,"3249":-27.682809829711914,"3250":-1.9844956398010254,"3251":2.162450075149536,"3252":6.666153907775879,"3253":13.354804992675781,"3254":-5.154900550842285,"3255":2.97999906539917,"3256":-0.8107854723930359,"3257":0.9260833859443665,"3258":24.016429901123047,"3259":20.707611083984375,"3260":-17.615402221679688,"3261":16.86690330505371,"3262":-9.929737091064453,"3263":0.8432978987693787,"3264":-1.7422239780426025,"3265":-1.5742238759994507,"3266":-0.027434976771473885,"3267":2.771651268005371,"3268":-8.403496742248535,"3269":-4.532503604888916,"3270":2.3531088829040527,"3271":-2.1195950508117676,"3272":20.877046585083008,"3273":-11.266783714294434,"3274":10.597667694091797,"3275":-7.373032569885254,"3276":5.848933219909668,"3277":-6.870847225189209,"3278":-0.7727196216583252,"3279":-8.053356170654297,"3280":-13.942098617553711,"3281":7.549265384674072,"3282":4.908876419067383,"3283":1.0874061584472656,"3284":-8.235597610473633,"3285":0.6833552122116089,"3286":23.430849075317383,"3287":-8.351516723632812,"3288":12.575624465942383,"3289":-4.630296230316162,"3290":0.46522679924964905,"3291":-8.17418098449707,"3292":6.496067523956299,"3293":-6.954764366149902,"3294":3.17568039894104,"3295":21.065677642822266,"3296":4.921947002410889,"3297":-14.00856876373291,"3298":10.545827865600586,"3299":-11.065265655517578,"3300":29.25894546508789,"3301":6.727397918701172,"3302":-18.29947280883789,"3303":-5.353857517242432,"3304":4.157726764678955,"3305":2.8447227478027344,"3306":7.172525405883789,"3307":9.543351173400879,"3308":4.492607116699219,"3309":18.23196029663086,"3310":0.9700641632080078,"3311":7.626065254211426,"3312":0.8489952087402344,"3313":13.690690040588379,"3314":3.1160950660705566,"3315":-49.40517807006836,"3316":2.726917266845703,"3317":-1.7808496952056885,"3318":2.8911449909210205,"3319":16.54362678527832,"3320":-9.2059907913208,"3321":1.1440593004226685,"3322":0.8706104159355164,"3323":-0.22204340994358063,"3324":-15.618680000305176,"3325":-3.0182511806488037,"3326":4.936056613922119,"3327":-7.7924699783325195,"3328":2.6938230991363525,"3329":1.5563580989837646,"3330":-10.816004753112793,"3331":-0.12938442826271057,"3332":-1.2533372640609741,"3333":4.3320207595825195,"3334":-1.551435112953186,"3335":0.042589399963617325,"3336":5.759977340698242,"3337":-6.9950151443481445,"3338":3.6499509811401367,"3339":-3.379035711288452,"3340":1.9407474994659424,"3341":-4.760343551635742,"3342":-4.104116916656494,"3343":-1.9549306631088257,"3344":18.257770538330078,"3345":3.1091787815093994,"3346":1.8238506317138672,"3347":-5.256424903869629,"3348":-2.3621432781219482,"3349":-1.1922039985656738,"3350":-8.289728164672852,"3351":25.254817962646484,"3352":2.773207426071167,"3353":-3.0272018909454346,"3354":-2.143991470336914,"3355":6.029285430908203,"3356":-19.84991455078125,"3357":6.14160680770874,"3358":-24.430376052856445,"3359":1.3401894569396973,"3360":-7.061553478240967,"3361":4.160549640655518,"3362":-3.556732654571533,"3363":-4.948620796203613,"3364":-15.98405647277832,"3365":1.0296900272369385,"3366":-0.4673948287963867,"3367":1.4538288116455078,"3368":0.17750294506549835,"3369":-3.3078653812408447,"3370":20.23297882080078,"3371":-2.948441982269287,"3372":-5.924108028411865,"3373":1.1773830652236938,"3374":-7.370920181274414,"3375":-9.265649795532227,"3376":-1.087780237197876,"3377":-16.45294952392578,"3378":2.3626341819763184,"3379":-1.3519980907440186,"3380":-6.6704206466674805,"3381":4.459330081939697,"3382":-2.363736867904663,"3383":1.2763453722000122,"3384":-8.170940399169922,"3385":-13.039324760437012,"3386":2.3924429416656494,"3387":-1.7612450122833252,"3388":6.941578388214111,"3389":-1.5036637783050537,"3390":-4.102736473083496,"3391":-14.805197715759277,"3392":1.6961839199066162,"3393":7.96425724029541,"3394":0.8274064064025879,"3395":-25.719743728637695,"3396":1.9056166410446167,"3397":5.252985954284668,"3398":2.016697645187378,"3399":25.433002471923828,"3400":18.079925537109375,"3401":24.91790199279785,"3402":-11.404398918151855,"3403":-51.53194808959961,"3404":13.704998016357422,"3405":11.363104820251465,"3406":-5.540804862976074,"3407":-6.437382698059082,"3408":11.72732925415039,"3409":-11.220232963562012,"3410":-13.498825073242188,"3411":9.975263595581055,"3412":-18.71926498413086,"3413":-25.129419326782227,"3414":5.453157424926758,"3415":70.89955139160156,"3416":68.87998962402344,"3417":28.460159301757812,"3418":77.54830932617188,"3419":-37.2671012878418,"3420":-22.58344268798828,"3421":-4.087355613708496,"3422":20.09633445739746,"3423":-37.92095184326172,"3424":5.876011371612549,"3425":-43.322357177734375,"3426":-10.870301246643066,"3427":9.525473594665527,"3428":-13.953529357910156,"3429":-12.185736656188965,"3430":14.613350868225098,"3431":-14.223603248596191,"3432":3.752810001373291,"3433":-25.009777069091797,"3434":39.82147216796875,"3435":-26.00531768798828,"3436":-10.249524116516113,"3437":15.704891204833984,"3438":107.33221435546875,"3439":13.767117500305176,"3440":-1.005490779876709,"3441":0.263038694858551,"3442":10.900202751159668,"3443":27.4521541595459,"3444":4.050085544586182,"3445":-23.824798583984375,"3446":-5.283324718475342,"3447":49.002723693847656,"3448":114.81387329101562,"3449":-20.812963485717773,"3450":80.73611450195312,"3451":27.00209617614746,"3452":26.72540855407715,"3453":-57.35166931152344,"3454":-112.96910095214844,"3455":15.55892562866211,"3456":19.60846710205078,"3457":-6.376931190490723,"3458":-39.955047607421875,"3459":-23.428112030029297,"3460":4.949825286865234,"3461":3.9663426876068115,"3462":-57.830074310302734,"3463":-35.32963180541992,"3464":27.955978393554688,"3465":-9.15877628326416,"3466":-0.9598096609115601,"3467":2.7367501258850098,"3468":12.728961944580078,"3469":20.880332946777344,"3470":176.09478759765625,"3471":8.879018783569336,"3472":-122.20193481445312,"3473":-26.22752571105957,"3474":-10.586921691894531,"3475":16.304231643676758,"3476":3.8607969284057617,"3477":156.63270568847656,"3478":23.002328872680664,"3479":-39.521026611328125,"3480":157.15512084960938,"3481":27.653093338012695,"3482":76.33251953125,"3483":141.08319091796875,"3484":-171.335205078125,"3485":-7.029139041900635,"3486":-22.75811004638672,"3487":18.100141525268555,"3488":-12.627023696899414,"3489":27.384397506713867,"3490":11.46203327178955,"3491":-2.7535855770111084,"3492":47.92887496948242,"3493":-8.28353214263916,"3494":9.012444496154785,"3495":9.388128280639648,"3496":5.979882717132568,"3497":8.958261489868164,"3498":-8.344240188598633,"3499":-31.162059783935547,"3500":2.090463399887085,"3501":25.18952751159668,"3502":10.77500057220459,"3503":-16.30423355102539,"3504":35.45594024658203,"3505":20.745088577270508,"3506":-21.62103843688965,"3507":-4.714114189147949,"3508":66.74492645263672,"3509":15.384888648986816,"3510":28.136980056762695,"3511":12.692483901977539,"3512":22.91376304626465,"3513":48.56535339355469,"3514":14.855777740478516,"3515":-27.62378692626953,"3516":7.1776041984558105,"3517":13.565813064575195,"3518":-9.207204818725586,"3519":27.08156394958496,"3520":-52.470054626464844,"3521":-5.581386566162109,"3522":-17.36369514465332,"3523":15.445596694946289,"3524":-57.63149642944336,"3525":-19.41975975036621,"3526":-10.933813095092773,"3527":-29.21599006652832,"3528":-69.07881927490234,"3529":54.01482009887695,"3530":-35.764686584472656,"3531":-3.444455862045288,"3532":-20.575149536132812,"3533":-20.359920501708984,"3534":-44.0058479309082,"3535":-15.662362098693848,"3536":-21.385032653808594,"3537":-19.988067626953125,"3538":11.587220191955566,"3539":-24.63723373413086,"3540":-15.911285400390625,"3541":-12.378612518310547,"3542":15.912227630615234,"3543":-61.555843353271484,"3544":12.552870750427246,"3545":70.1718521118164,"3546":12.470488548278809,"3547":45.708580017089844,"3548":43.54130935668945,"3549":30.51974868774414,"3550":2.413508653640747,"3551":24.273927688598633,"3552":4.6602935791015625,"3553":-8.494542121887207,"3554":-66.20320129394531,"3555":38.00722122192383,"3556":-24.372085571289062,"3557":28.697765350341797,"3558":-6.499653339385986,"3559":-2.627800226211548,"3560":-23.35179901123047,"3561":-6.388696670532227,"3562":-10.239407539367676,"3563":5.259517192840576,"3564":23.698081970214844,"3565":-6.942498683929443,"3566":-23.936756134033203,"3567":30.17347526550293,"3568":30.807106018066406,"3569":14.797980308532715,"3570":52.92816925048828,"3571":16.467453002929688,"3572":-15.513933181762695,"3573":-46.25056457519531,"3574":1.3957996368408203,"3575":-16.615127563476562,"3576":17.42945671081543,"3577":-6.471004486083984,"3578":16.72603988647461,"3579":-26.574440002441406,"3580":-0.6261470317840576,"3581":-1.5130256414413452,"3582":-6.576456546783447,"3583":-12.638494491577148,"3584":-6.258518695831299,"3585":19.546184539794922,"3586":-77.26264953613281,"3587":17.43280792236328,"3588":0.16800157725811005,"3589":36.534271240234375,"3590":-2.91449236869812,"3591":-3.0246055126190186,"3592":8.989717483520508,"3593":-11.476852416992188,"3594":9.707618713378906,"3595":-25.908803939819336,"3596":15.317338943481445,"3597":-22.698392868041992,"3598":-34.85633850097656,"3599":-16.777023315429688,"3600":-19.931678771972656,"3601":-29.36370277404785,"3602":-11.514030456542969,"3603":-7.3581366539001465,"3604":-19.383333206176758,"3605":-6.360981464385986,"3606":13.406286239624023,"3607":13.398749351501465,"3608":-10.56297779083252,"3609":10.109039306640625,"3610":6.825135231018066,"3611":54.903541564941406,"3612":12.526273727416992,"3613":13.253632545471191,"3614":13.916462898254395,"3615":-82.37435150146484,"3616":9.96790885925293,"3617":9.511887550354004,"3618":2.5720582008361816,"3619":-32.368896484375,"3620":8.447391510009766,"3621":-6.7906084060668945,"3622":3.880556583404541,"3623":-1.7431248426437378,"3624":-0.367946058511734,"3625":-10.823933601379395,"3626":44.742286682128906,"3627":39.06348419189453,"3628":-17.58070182800293,"3629":-19.91781234741211,"3630":-11.858731269836426,"3631":1.7065563201904297,"3632":-6.817818641662598,"3633":20.31818389892578,"3634":4.903197288513184,"3635":4.418865203857422,"3636":5.790629863739014,"3637":21.3466796875,"3638":14.348143577575684,"3639":2.795999526977539,"3640":27.53194236755371,"3641":74.64170837402344,"3642":4.930629730224609,"3643":-14.83978271484375,"3644":35.967472076416016,"3645":-30.677227020263672,"3646":-7.717202186584473,"3647":3.241060972213745,"3648":-13.214885711669922,"3649":65.50021362304688,"3650":64.5029067993164,"3651":45.64243698120117,"3652":-37.339515686035156,"3653":-60.27726745605469,"3654":-19.55000877380371,"3655":83.4497299194336,"3656":4.4230756759643555,"3657":-4.908062934875488,"3658":13.11412239074707,"3659":-14.110374450683594,"3660":2.6013755798339844,"3661":-4.234797954559326,"3662":-26.345470428466797,"3663":2.7791969776153564,"3664":113.66230773925781,"3665":-18.388465881347656,"3666":-9.335766792297363,"3667":-31.250530242919922,"3668":25.126998901367188,"3669":21.458114624023438,"3670":-49.874671936035156,"3671":36.634674072265625,"3672":8.82822036743164,"3673":-3.292855739593506,"3674":-5.248415946960449,"3675":-77.8841781616211,"3676":-14.073862075805664,"3677":-1.7018778324127197,"3678":-101.74015045166016,"3679":31.65473747253418,